tensor_name:  vgg_16/conv1/conv1_1/weights
3,3,3,0
[[[ 0.4800154   0.55037946  0.42947057]
  [ 0.4085474   0.44007453  0.373467  ]
  [-0.06514555 -0.08138704 -0.06136011]]

 [[ 0.31047726  0.34573907  0.27476987]
  [ 0.05020237  0.04063221  0.03868078]
  [-0.40338343 -0.45350131 -0.36722335]]

 [[-0.05087169 -0.05863491 -0.05746817]
  [-0.28522751 -0.33066967 -0.26224968]
  [-0.41851634 -0.4850302  -0.35009676]]]
3,3,3,1
[[[-0.17269668  0.02087744  0.11727387]
  [-0.17037505  0.04734124  0.16206263]
  [-0.15435153  0.04185439  0.135694  ]]

 [[-0.18760149  0.03104937  0.14835016]
  [-0.17757156  0.06581022  0.20229845]
  [-0.17439997  0.0462575   0.16168842]]

 [[-0.16600266  0.03167877  0.12934428]
  [-0.16666673  0.05471011  0.17157242]
  [-0.15704881  0.04231958  0.13871045]]]
3,3,3,2
[[[  3.75577137e-02   9.88311544e-02   3.40129584e-02]
  [ -4.96297423e-03   5.13819456e-02   1.70863140e-03]
  [ -1.38038069e-01  -1.01763301e-01  -1.15694344e-01]]

 [[  1.66595340e-01   2.40750551e-01   1.61559835e-01]
  [  1.51188180e-01   2.20311403e-01   1.56414255e-01]
  [ -1.09849639e-01  -6.67438358e-02  -8.99365395e-02]]

 [[  1.56279504e-02   7.59588331e-02   1.29030216e-02]
  [ -7.96697661e-03   4.86797579e-02   5.44555223e-05]
  [ -1.49133086e-01  -1.12076312e-01  -1.25339806e-01]]]
3,3,3,3
[[[ 0.40877539  0.43703237  0.35422093]
  [ 0.31449109  0.3227509   0.27866557]
  [ 0.34451026  0.35101369  0.30172354]]

 [[ 0.09916737  0.09673885  0.09780094]
  [-0.39442134 -0.42466447 -0.362367  ]
  [-0.06177092 -0.08895405 -0.04607875]]

 [[-0.02741977 -0.0481492  -0.00097071]
  [-0.46822482 -0.51541698 -0.40317345]
  [-0.19285059 -0.23510846 -0.1468185 ]]]
3,3,3,4
[[[-0.0820337  -0.10985146 -0.0865837 ]
  [ 0.25096548  0.23999788  0.19084392]
  [ 0.23059797  0.23852432  0.16842183]]

 [[-0.18142731 -0.23399651 -0.18646947]
  [ 0.24379836  0.20586449  0.17608799]
  [ 0.228274    0.21035554  0.15426615]]

 [[-0.27790195 -0.33689022 -0.23963833]
  [-0.11767372 -0.17719544 -0.14159909]
  [-0.06813156 -0.10954819 -0.10266907]]]
3,3,3,5
[[[-0.04828076 -0.19237703  0.22968295]
  [-0.08605088 -0.22363968  0.23940392]
  [-0.04345802 -0.18737321  0.23243521]]

 [[-0.07164131 -0.21034837  0.25140768]
  [-0.10327227 -0.23609307  0.26766661]
  [-0.08243635 -0.22165568  0.23725881]]

 [[-0.04586786 -0.19264044  0.22514924]
  [-0.05622768 -0.19742602  0.25982696]
  [-0.04606855 -0.19427177  0.22045547]]]
3,3,3,6
[[[ 0.06561838  0.09789737  0.06683242]
  [-0.14696138 -0.12558413 -0.11207201]
  [-0.21190998 -0.20913845 -0.16651477]]

 [[ 0.155517    0.20074116  0.14721949]
  [-0.07578589 -0.04312737 -0.05267247]
  [-0.19151597 -0.17975736 -0.1556235 ]]

 [[ 0.18386579  0.22895685  0.15202443]
  [ 0.10438651  0.14149222  0.0982329 ]
  [ 0.00406519  0.02033227  0.00739815]]]
3,3,3,7
[[[ 0.11799728  0.07935189  0.04133838]
  [ 0.25529897  0.21280921  0.11657716]
  [ 0.26339853  0.23472066  0.10312013]]

 [[-0.16804008 -0.23328967 -0.21259114]
  [-0.0351117  -0.10727409 -0.14905244]
  [ 0.18590738  0.13385555  0.03825026]]

 [[-0.22125229 -0.28242558 -0.2132176 ]
  [-0.12856954 -0.19886224 -0.18567187]
  [ 0.09334721  0.04201774 -0.00163494]]]
3,3,3,8
[[[ 0.16427684 -0.27517739  0.13026784]
  [ 0.16928768 -0.3185305   0.09586009]
  [ 0.16928303 -0.27461806  0.12636507]]

 [[ 0.19656844 -0.29317632  0.1113601 ]
  [ 0.20457552 -0.33554825  0.0772165 ]
  [ 0.19321002 -0.30037677  0.0990585 ]]

 [[ 0.17174917 -0.28164104  0.10635132]
  [ 0.21990669 -0.28050637  0.1134313 ]
  [ 0.16903633 -0.28820974  0.09442389]]]
3,3,3,9
[[[-0.15978716 -0.14232883  0.03291035]
  [-0.27969706 -0.25114581 -0.05266473]
  [-0.17982842 -0.16095386  0.01590413]]

 [[-0.05638141 -0.01564573  0.15295148]
  [-0.14474234 -0.09185937  0.09797249]
  [-0.0629037  -0.02074183  0.14915155]]

 [[ 0.06816525  0.10518216  0.23163976]
  [ 0.04729915  0.09847552  0.24260002]
  [ 0.06334335  0.10148139  0.22880137]]]
3,3,3,10
[[[ 0.14613639  0.17323188  0.09615457]
  [ 0.56498653  0.60851592  0.50021327]
  [ 0.09936478  0.11340355  0.04598916]]

 [[ 0.00304555  0.01206517  0.00384975]
  [ 0.50553119  0.52829504  0.48986775]
  [-0.03820084 -0.04311888 -0.04158864]]

 [[-0.45314637 -0.48918396 -0.38299575]
  [-0.36620376 -0.40672201 -0.31344005]
  [-0.45361367 -0.5010919  -0.38670486]]]
3,3,3,11
[[[-0.09036129  0.04103169 -0.09222532]
  [ 0.13328667  0.29481015  0.10438558]
  [ 0.08771688  0.24502251  0.04211995]]

 [[-0.18831857 -0.05235679 -0.15983562]
  [ 0.08857661  0.25445628  0.08756892]
  [ 0.06015956  0.22273313  0.03877559]]

 [[-0.27611634 -0.16469611 -0.22494633]
  [-0.17987624 -0.04491104 -0.1523234 ]
  [-0.12226781  0.01077384 -0.11743781]]]
3,3,3,12
[[[-0.21903016  0.29249442 -0.15587331]
  [-0.19743554  0.34778324 -0.14431474]
  [-0.20970553  0.30743936 -0.14780511]]

 [[-0.18859522  0.35785919 -0.14120808]
  [-0.14462055  0.43766999 -0.10614073]
  [-0.17370623  0.37939447 -0.12375734]]

 [[-0.21276034  0.30069417 -0.17139398]
  [-0.19308928  0.35418957 -0.15895553]
  [-0.20633635  0.31385601 -0.15827182]]]
3,3,3,13
[[[-0.12617548  0.01629656  0.0522968 ]
  [-0.22639902 -0.07863537 -0.01378012]
  [-0.30508557 -0.18746006 -0.11160712]]

 [[ 0.00424111  0.17765731  0.20315832]
  [-0.06015022  0.11844507  0.17187729]
  [-0.23216102 -0.08801441 -0.01970161]]

 [[ 0.03813203  0.20032384  0.20184605]
  [ 0.00298583  0.1722267   0.19776742]
  [-0.13173215  0.00345506  0.04263865]]]
3,3,3,14
[[[-0.09937377 -0.12607214 -0.08324417]
  [-0.41710737 -0.45902365 -0.38120896]
  [-0.06171193 -0.08580325 -0.05585349]]

 [[-0.03084002 -0.04947374 -0.0433545 ]
  [-0.40418109 -0.43691039 -0.39929131]
  [ 0.03518116  0.02217908  0.01176218]]

 [[ 0.29788256  0.30938667  0.22901718]
  [ 0.22192094  0.2245709   0.15875629]
  [ 0.3406893   0.35814291  0.26349422]]]
3,3,3,15
[[[ 0.16049297 -0.15555367  0.15728769]
  [ 0.15084587 -0.19292881  0.13965815]
  [ 0.12625746 -0.18910025  0.1296532 ]]

 [[ 0.10185438 -0.2362152   0.10083992]
  [ 0.03751706 -0.32983929  0.02901204]
  [ 0.08432751 -0.25150189  0.08919528]]

 [[ 0.1039431  -0.20190401  0.12384758]
  [ 0.09285374 -0.23962668  0.10433289]
  [ 0.10560406 -0.19676568  0.1297702 ]]]
3,3,3,16
[[[ 0.18870655 -0.05317234  0.0291196 ]
  [ 0.18121564 -0.10486918 -0.03295433]
  [ 0.17780127 -0.05472881  0.0360858 ]]

 [[ 0.23172282 -0.09415262 -0.04473094]
  [ 0.2256189  -0.14862581 -0.11210624]
  [ 0.22518183 -0.09155737 -0.03498694]]

 [[ 0.21362288 -0.09909017 -0.0429165 ]
  [ 0.23785017 -0.12288104 -0.08188602]
  [ 0.20846486 -0.09609735 -0.03524959]]]
3,3,3,17
[[[ 0.09347539  0.18129717  0.05094835]
  [ 0.11005884  0.19839597  0.08374372]
  [-0.08960549 -0.02546789 -0.09326147]]

 [[ 0.0987699   0.19233669  0.0711324 ]
  [ 0.11281546  0.20635575  0.10391945]
  [-0.1609457  -0.09300824 -0.14529482]]

 [[-0.07285507 -0.0007545  -0.08312926]
  [-0.10681842 -0.03500161 -0.09716237]
  [-0.21489841 -0.16189417 -0.18348503]]]
3,3,3,18
[[[ 0.07497339 -0.2077193   0.19055748]
  [ 0.04183868 -0.25816104  0.16667616]
  [ 0.09044836 -0.19532511  0.19906574]]

 [[ 0.07823766 -0.21835856  0.2015547 ]
  [-0.01976684 -0.33544189  0.11178232]
  [ 0.09559622 -0.20320655  0.21125664]]

 [[ 0.08573886 -0.19978707  0.19310385]
  [ 0.03318957 -0.2700071   0.14746384]
  [ 0.09177572 -0.19609001  0.19074047]]]
3,3,3,19
[[[ 0.12632439 -0.13894619 -0.04372229]
  [ 0.127719   -0.19135612 -0.1041602 ]
  [ 0.1158876  -0.14542769 -0.04712771]]

 [[ 0.19359826 -0.14635436 -0.08472029]
  [ 0.190134   -0.20704944 -0.1557896 ]
  [ 0.18273103 -0.15368845 -0.09054703]]

 [[ 0.1817631  -0.12267412 -0.06277645]
  [ 0.21130536 -0.14748918 -0.10147458]
  [ 0.17022918 -0.13097374 -0.07124022]]]
3,3,3,20
[[[ 0.23849919  0.25539106  0.36180311]
  [ 0.14157274  0.15677808  0.30849633]
  [-0.00566976 -0.02011288  0.14056203]]

 [[ 0.10057033  0.12054416  0.27560392]
  [-0.1311032  -0.11795881  0.09054149]
  [-0.27792889 -0.29411548 -0.07637139]]

 [[-0.02568433 -0.03019952  0.13497761]
  [-0.23363787 -0.24361543 -0.02560142]
  [-0.32948837 -0.36464703 -0.14163131]]]
3,3,3,21
[[[ 0.35597178  0.3563149   0.23902874]
  [ 0.39788729  0.3799369   0.30987528]
  [ 0.08646969  0.0571688   0.06473621]]

 [[ 0.18229982  0.14790893  0.09006898]
  [-0.02528543 -0.08454139 -0.07610167]
  [-0.27923226 -0.34281766 -0.25570887]]

 [[ 0.03504165 -0.01092279 -0.00071148]
  [-0.21692428 -0.28586996 -0.20556365]
  [-0.33109641 -0.39586702 -0.25005817]]]
3,3,3,22
[[[-0.12046139  0.00118498  0.16667192]
  [-0.17090142 -0.02594189  0.17097801]
  [-0.12404908  0.00151047  0.1687201 ]]

 [[-0.16372119 -0.01909573  0.17909338]
  [-0.21932983 -0.05162582  0.17934875]
  [-0.17791158 -0.03037101  0.17024809]]

 [[-0.13394448 -0.00957824  0.16053411]
  [-0.15728132 -0.01042137  0.1914428 ]
  [-0.13078149 -0.00378751  0.16880605]]]
3,3,3,23
[[[ -3.08338255e-01  -4.87027854e-01  -1.80467457e-01]
  [ -2.37905011e-01  -4.09513474e-01  -1.17244996e-01]
  [  1.08455405e-01  -4.31569032e-02   1.81487694e-01]]

 [[ -2.03620762e-01  -3.75806600e-01  -7.99025521e-02]
  [ -1.17175855e-01  -2.76997328e-01  -3.49949521e-04]
  [  2.66444415e-01   1.30394563e-01   3.40175331e-01]]

 [[  1.07057400e-01  -4.81424779e-02   1.84494838e-01]
  [  2.03627706e-01   6.29161298e-02   2.77538925e-01]
  [  3.68812591e-01   2.43745610e-01   4.04833347e-01]]]
3,3,3,24
[[[-0.02083396  0.11533792  0.04404821]
  [-0.07155016  0.06701437  0.00966333]
  [-0.12228294 -0.00246835 -0.04592194]]

 [[-0.00051869  0.14725193  0.07451686]
  [-0.06439608  0.08504013  0.02745619]
  [-0.14637132 -0.01696968 -0.05888153]]

 [[-0.02194524  0.11463996  0.04025492]
  [-0.06314134  0.07585644  0.01520346]
  [-0.11968347  0.00035171 -0.04599162]]]
3,3,3,25
[[[-0.15872632  0.1163794   0.09592837]
  [-0.16319121  0.13944666  0.12468038]
  [-0.15240695  0.12636176  0.10174061]]

 [[-0.16730706  0.13736778  0.12232669]
  [-0.17251123  0.16125675  0.15278567]
  [-0.16109975  0.1473745   0.12963735]]

 [[-0.17379802  0.10524599  0.07937991]
  [-0.17338306  0.13363452  0.11532211]
  [-0.17065473  0.11229908  0.08544833]]]
3,3,3,26
[[[-0.07149437 -0.07708844 -0.04381131]
  [-0.46935585 -0.495031   -0.39102998]
  [-0.38805357 -0.4157187  -0.28564966]]

 [[ 0.22795013  0.24125536  0.18568173]
  [-0.10067864 -0.10921352 -0.1042131 ]
  [-0.11535279 -0.12957004 -0.08812878]]

 [[ 0.37457848  0.40863019  0.27207401]
  [ 0.32480803  0.34552643  0.249017  ]
  [ 0.22145008  0.23217745  0.17421368]]]
3,3,3,27
[[[-0.05043453  0.10368702 -0.18848351]
  [ 0.02727965  0.17416753 -0.17792737]
  [-0.00554895  0.13986839 -0.18292557]]

 [[-0.00488439  0.14413531 -0.18481646]
  [ 0.12199405  0.26450121 -0.12894408]
  [ 0.05089047  0.19054219 -0.17017853]]

 [[-0.06530017  0.08363787 -0.19339779]
  [ 0.00711     0.14819314 -0.18588647]
  [-0.02640966  0.1133359  -0.19133255]]]
3,3,3,28
[[[-0.03383944 -0.07185701 -0.04399502]
  [-0.00187677 -0.02275022 -0.03687759]
  [ 0.36880159  0.38729131  0.28088847]]

 [[-0.37024724 -0.42247528 -0.34596241]
  [-0.43076617 -0.46505883 -0.43290257]
  [ 0.27394396  0.28503442  0.20495637]]

 [[-0.06858932 -0.10352251 -0.06763568]
  [-0.0553761  -0.07197934 -0.07852355]
  [ 0.31682923  0.33926243  0.24074145]]]
3,3,3,29
[[[ 0.21956988 -0.00388477 -0.18985446]
  [ 0.27089405  0.02269586 -0.17633693]
  [ 0.14517576 -0.02902579 -0.16050746]]

 [[ 0.22818473 -0.01421229 -0.19384338]
  [ 0.2789039   0.01214919 -0.17836204]
  [ 0.14357196 -0.04767225 -0.17088714]]

 [[ 0.10133076 -0.06590685 -0.15913573]
  [ 0.10542412 -0.08424108 -0.18455751]
  [ 0.03615477 -0.07995966 -0.12442967]]]
3,3,3,30
[[[-0.29206657 -0.26350829 -0.23386982]
  [-0.21533535 -0.16567972 -0.16781022]
  [-0.12312724 -0.07209669 -0.09850768]]

 [[-0.15050288 -0.09885683 -0.10912691]
  [ 0.14034545  0.2213829   0.16967893]
  [ 0.12203539  0.20242453  0.13140653]]

 [[-0.05022326  0.00267146 -0.04033394]
  [ 0.17961133  0.2615135   0.1801023 ]
  [ 0.13728672  0.21539773  0.1198751 ]]]
3,3,3,31
[[[ 0.14893703  0.12447353  0.12836744]
  [ 0.13036445  0.09525505  0.08564197]
  [ 0.13415098  0.11141251  0.12136985]]

 [[ 0.14171803  0.11669213  0.11066163]
  [ 0.04218798  0.00535035 -0.0145823 ]
  [ 0.13311349  0.11018976  0.11101208]]

 [[ 0.15279444  0.14212981  0.15973611]
  [ 0.11152215  0.09029514  0.09495541]
  [ 0.13753545  0.12912421  0.15397617]]]
3,3,3,32
[[[ 0.01326195 -0.0746256  -0.11059975]
  [ 0.03292726 -0.07831065 -0.1236757 ]
  [ 0.01893479 -0.07127871 -0.10691541]]

 [[ 0.0595953  -0.04749715 -0.0924182 ]
  [ 0.1232256  -0.00727669 -0.06347281]
  [ 0.04791402 -0.0613196  -0.10601826]]

 [[ 0.01089093 -0.07251924 -0.10283364]
  [ 0.0448981  -0.06059125 -0.10179035]
  [ 0.00816117 -0.07648329 -0.10756919]]]
3,3,3,33
[[[-0.00503388 -0.15612163  0.00571336]
  [-0.03748786 -0.19752818 -0.0181762 ]
  [-0.14911501 -0.31025812 -0.12190244]]

 [[ 0.18421321  0.04034597  0.19312122]
  [ 0.26538953  0.11548385  0.28351158]
  [-0.04233449 -0.2031974  -0.02150796]]

 [[ 0.11910769 -0.02443784  0.11672159]
  [ 0.19854152  0.051978    0.20606373]
  [-0.01941619 -0.17438021 -0.00898326]]]
3,3,3,34
[[[-0.27007344 -0.29000348 -0.24479656]
  [-0.30398133 -0.32222342 -0.26261711]
  [-0.39854556 -0.42748395 -0.33642569]]

 [[ 0.11472005  0.12724607  0.09554115]
  [ 0.37811118  0.40158507  0.37399763]
  [-0.10353793 -0.10683778 -0.08733696]]

 [[ 0.14936899  0.16730642  0.09352687]
  [ 0.40726802  0.43927687  0.36522156]
  [ 0.02333043  0.02671521 -0.00308948]]]
3,3,3,35
[[[-0.40322903 -0.43226039 -0.30530283]
  [-0.19461407 -0.20673625 -0.16753504]
  [ 0.06705149  0.07580717  0.03397209]]

 [[-0.3044951  -0.32399613 -0.24142911]
  [ 0.15433477  0.16329655  0.14228928]
  [ 0.40919971  0.44448513  0.34415394]]

 [[-0.13797051 -0.14450736 -0.10461871]
  [ 0.13048458  0.14883979  0.09734739]
  [ 0.26570961  0.30314723  0.18610834]]]
3,3,3,36
[[[-0.17164022  0.05063162  0.060938  ]
  [-0.20385186  0.04089997  0.06914271]
  [-0.17306712  0.05201071  0.06014954]]

 [[-0.203079    0.04168436  0.07318608]
  [-0.22849302  0.03889391  0.08916554]
  [-0.20274836  0.04436671  0.07417805]]

 [[-0.17413661  0.0492637   0.06187231]
  [-0.19977772  0.04500385  0.07536139]
  [-0.17028588  0.05473826  0.06654227]]]
3,3,3,37
[[[-0.36889768 -0.43103257 -0.32816252]
  [-0.28371742 -0.35003701 -0.27985194]
  [-0.297187   -0.36224136 -0.29610091]]

 [[-0.08745761 -0.12045752 -0.09964942]
  [ 0.38095042  0.36192468  0.3341161 ]
  [ 0.05269272  0.02334622  0.00453637]]

 [[ 0.07536738  0.07618032  0.04458109]
  [ 0.5184412   0.53946865  0.45954201]
  [ 0.19605535  0.20172837  0.13463163]]]
3,3,3,38
[[[ 0.13081503  0.29444188  0.1711953 ]
  [ 0.15459608  0.32921073  0.21669765]
  [-0.00133177  0.15041706  0.0564939 ]]

 [[-0.06252337  0.10120346  0.01644653]
  [-0.09860469  0.07380549  0.00429485]
  [-0.18317151 -0.03111723 -0.08407679]]

 [[-0.17010963 -0.03734917 -0.08887924]
  [-0.23584525 -0.095698   -0.12936987]
  [-0.23454525 -0.11113026 -0.13394564]]]
3,3,3,39
[[[-0.0358882  -0.10993682  0.10265407]
  [-0.11990397 -0.19758695  0.04595486]
  [-0.04643798 -0.12538068  0.09067708]]

 [[-0.04197054 -0.11337133  0.12120296]
  [-0.17326267 -0.24885692  0.0188637 ]
  [-0.05966521 -0.13633575  0.10113112]]

 [[-0.03258639 -0.1041396   0.10223453]
  [-0.11105626 -0.18644011  0.04860276]
  [-0.05120771 -0.12792586  0.08034358]]]
3,3,3,40
[[[-0.10626303  0.06623434 -0.11063665]
  [-0.11452698  0.06585026 -0.11243556]
  [-0.16372663 -0.0040107  -0.15568645]]

 [[-0.00123176  0.19449428 -0.01835439]
  [ 0.03562608  0.24023479  0.02441533]
  [-0.10281684  0.07850371 -0.10447415]]

 [[-0.01397882  0.17332828 -0.04090111]
  [ 0.00525392  0.20117153 -0.01628016]
  [-0.09490839  0.07894424 -0.10676192]]]
3,3,3,41
[[[ 0.29136992  0.18029599  0.33012986]
  [ 0.31167251  0.20340009  0.35892653]
  [ 0.37733772  0.28342822  0.39616027]]

 [[-0.0971558  -0.23187284 -0.00446805]
  [-0.27026483 -0.40738681 -0.16933602]
  [ 0.15261276  0.03896909  0.21756372]]

 [[-0.22289325 -0.36571217 -0.11403126]
  [-0.40462691 -0.55175447 -0.28587604]
  [ 0.00768055 -0.11616419  0.08607976]]]
3,3,3,42
[[[-0.06310713 -0.07049958 -0.05869728]
  [ 0.15044418  0.1689757   0.13775158]
  [ 0.25260803  0.28537536  0.22143658]]

 [[-0.2185995  -0.23056777 -0.19022377]
  [ 0.01303413  0.02520111  0.01994503]
  [ 0.21116725  0.24065673  0.19511278]]

 [[-0.22979894 -0.24971613 -0.19143637]
  [-0.14925547 -0.15264013 -0.12912531]
  [ 0.00594821  0.01558872  0.00047423]]]
3,3,3,43
[[[ 0.28635997  0.30771789  0.18478717]
  [ 0.27824068  0.29837188  0.18296133]
  [ 0.30842188  0.34127289  0.21322653]]

 [[-0.02256021 -0.03182225 -0.06467631]
  [-0.30704486 -0.32256067 -0.33172512]
  [ 0.02450761  0.026387   -0.01420332]]

 [[-0.11940004 -0.14375187 -0.11015832]
  [-0.41201642 -0.44364116 -0.37998617]
  [-0.10298665 -0.11676502 -0.08947985]]]
3,3,3,44
[[[-0.04254856  0.09669701  0.01050853]
  [-0.13263085  0.00467647 -0.05518027]
  [-0.25632083 -0.15041117 -0.1762652 ]]

 [[ 0.11691329  0.2796587   0.17095707]
  [ 0.06137704  0.22147244  0.13875549]
  [-0.21487495 -0.09147725 -0.13328704]]

 [[ 0.03554726  0.18363142  0.06857023]
  [ 0.00140742  0.14939182  0.05752702]
  [-0.17419812 -0.05940686 -0.11471854]]]
3,3,3,45
[[[ 0.10345241  0.09883999  0.10668027]
  [ 0.33046445  0.35624322  0.2862331 ]
  [ 0.51294214  0.57510966  0.42510888]]

 [[-0.44129026 -0.48058259 -0.37709406]
  [-0.25068027 -0.26492789 -0.24571872]
  [ 0.36411214  0.3975631   0.30716747]]

 [[-0.43794334 -0.4860552  -0.34069246]
  [-0.33834398 -0.36805609 -0.29558903]
  [ 0.15643641  0.16743517  0.13225588]]]
3,3,3,46
[[[-0.02848322 -0.06726889 -0.13086924]
  [-0.07600795 -0.13530047 -0.1867422 ]
  [-0.20166892 -0.25851721 -0.25350815]]

 [[ 0.22551435  0.18651542  0.05354407]
  [ 0.30200261  0.24376494  0.11727266]
  [-0.06013079 -0.12498847 -0.17994316]]

 [[ 0.14379103  0.11588541 -0.01713191]
  [ 0.21982133  0.17528656  0.04505523]
  [-0.03164292 -0.08063878 -0.14532445]]]
3,3,3,47
[[[-0.45139903 -0.4840571  -0.36283946]
  [-0.44357869 -0.46559554 -0.38248262]
  [-0.08717645 -0.09077421 -0.07348043]]

 [[-0.22162372 -0.23572764 -0.18524732]
  [-0.01118407 -0.00494583 -0.0081452 ]
  [ 0.24371201  0.26982284  0.21025793]]

 [[ 0.14303869  0.15393226  0.11510787]
  [ 0.39877     0.43593571  0.34456447]
  [ 0.40707463  0.45485801  0.32593292]]]
3,3,3,48
[[[ 0.19618554  0.16756544  0.06440807]
  [-0.03699766 -0.09247749 -0.10362787]
  [-0.30172807 -0.3579697  -0.2615459 ]]

 [[ 0.34061837  0.30806005  0.16197859]
  [ 0.08399384  0.02136817 -0.0299311 ]
  [-0.33069053 -0.39859223 -0.33031601]]

 [[ 0.25599322  0.23466325  0.07784141]
  [ 0.1803335   0.13664511  0.05642072]
  [-0.08776058 -0.13477233 -0.11027577]]]
3,3,3,49
[[[-0.08979315 -0.05524461  0.09335972]
  [ 0.05867117  0.13476901  0.26183617]
  [ 0.25323483  0.33324924  0.39673269]]

 [[-0.40399408 -0.36483973 -0.16163439]
  [-0.23614286 -0.15524386  0.02310665]
  [ 0.14306851  0.23351616  0.33817336]]

 [[-0.35029486 -0.33124816 -0.13694081]
  [-0.21698503 -0.1596313   0.014815  ]
  [ 0.06087554  0.12487411  0.22911766]]]
3,3,3,50
[[[-0.15111087  0.12566034  0.00401619]
  [-0.16209759  0.13452438  0.01031087]
  [-0.14677018  0.13262685  0.00411675]]

 [[-0.15829873  0.13894165  0.0206385 ]
  [-0.15486029  0.16263415  0.04231073]
  [-0.15428965  0.14550267  0.0215735 ]]

 [[-0.15430553  0.12466028  0.00498014]
  [-0.16138081  0.13674538  0.01619651]
  [-0.14715308  0.13372743  0.01049088]]]
3,3,3,51
[[[ 0.46370047  0.50040096  0.37814805]
  [ 0.16602094  0.15793252  0.14995824]
  [-0.14674309 -0.18845403 -0.09938256]]

 [[ 0.39816543  0.42490977  0.33295661]
  [-0.24064894 -0.26625356 -0.22060387]
  [-0.6122331  -0.67140007 -0.51870257]]

 [[ 0.32768586  0.35854527  0.27094221]
  [-0.03203399 -0.04496703 -0.01171813]
  [-0.30880859 -0.35057274 -0.22309828]]]
3,3,3,52
[[[ 0.12699455 -0.07442727  0.05268804]
  [ 0.16893545 -0.0775722   0.02540543]
  [ 0.23803551  0.01520116  0.0882033 ]]

 [[-0.00122763 -0.23309128 -0.08019977]
  [ 0.00069239 -0.27801824 -0.15045896]
  [ 0.20508599 -0.04599127  0.04148736]]

 [[ 0.03577188 -0.15689564  0.00196651]
  [ 0.05411232 -0.18269643 -0.0474086 ]
  [ 0.16965567 -0.04256564  0.05644935]]]
3,3,3,53
[[[-0.27397472 -0.3387222  -0.27078936]
  [-0.26331019 -0.32948962 -0.31478256]
  [ 0.06894964  0.0388309  -0.00562813]]

 [[-0.07121032 -0.1435205  -0.15887783]
  [ 0.01288261 -0.05691215 -0.13578036]
  [ 0.3038432   0.27266422  0.14166872]]

 [[ 0.12269582  0.07197306 -0.00540928]
  [ 0.21773337  0.17007834  0.03158833]
  [ 0.29993615  0.28292358  0.1114843 ]]]
3,3,3,54
[[[ 0.04517473 -0.02613011  0.11060741]
  [-0.24549749 -0.33279872 -0.14417367]
  [-0.27318993 -0.3677302  -0.16846347]]

 [[ 0.19594613  0.13500369  0.25348401]
  [-0.12340893 -0.20328592 -0.03425237]
  [-0.17490524 -0.26486534 -0.0812318 ]]

 [[ 0.30062667  0.24752659  0.32685903]
  [ 0.18325534  0.11749914  0.23576194]
  [ 0.09996969  0.02211057  0.15412465]]]
3,3,3,55
[[[-0.23849334 -0.07352738 -0.11819526]
  [-0.17497575  0.02083533 -0.04717913]
  [-0.04208441  0.15315224  0.05607524]]

 [[-0.22775872 -0.04329246 -0.0987839 ]
  [-0.12246658  0.09528973  0.01390128]
  [ 0.03500566  0.25358799  0.1431932 ]]

 [[-0.13378069  0.04178403 -0.03451736]
  [-0.05737292  0.15019932  0.0509751 ]
  [ 0.04029984  0.24646994  0.12314192]]]
3,3,3,56
[[[ 0.00912306 -0.11533686  0.04298935]
  [ 0.0872103  -0.04046623  0.09854051]
  [ 0.23265514  0.12966995  0.22941053]]

 [[-0.1649529  -0.30907845 -0.12695695]
  [-0.11551519 -0.26433125 -0.10364927]
  [ 0.19174919  0.07230287  0.18545516]]

 [[-0.05257837 -0.18305206 -0.01578351]
  [-0.00867471 -0.14473282  0.00424274]
  [ 0.1629665   0.05139726  0.15893888]]]
3,3,3,57
[[[ 0.29967809  0.17063108  0.35323623]
  [ 0.02390032 -0.13316667  0.11756504]
  [-0.08351236 -0.24944878  0.02054979]]

 [[ 0.23045376  0.09270763  0.29886681]
  [-0.24196999 -0.41218945 -0.1286826 ]
  [-0.31117243 -0.48976371 -0.18665253]]

 [[ 0.27573535  0.14676033  0.3250291 ]
  [ 0.04112757 -0.11370508  0.12952094]
  [-0.04330288 -0.20563774  0.05386377]]]
3,3,3,58
[[[-0.31998897 -0.36752653 -0.28468162]
  [-0.02897463 -0.04093431 -0.04440473]
  [ 0.15085261  0.1735898   0.11191057]]

 [[-0.31702453 -0.36213866 -0.28596532]
  [ 0.29317614  0.2975775   0.27352276]
  [ 0.48624769  0.5295403   0.44455817]]

 [[-0.35386804 -0.39189911 -0.30099481]
  [-0.02387705 -0.02742473 -0.02337684]
  [ 0.14334013  0.17104657  0.11767759]]]
3,3,3,59
[[[ 0.08725975  0.13339569 -0.20289008]
  [ 0.12510653  0.1433036  -0.24480745]
  [ 0.08552386  0.13384549 -0.19338934]]

 [[ 0.14986272  0.16017723 -0.24688537]
  [ 0.19491087  0.17601621 -0.28674325]
  [ 0.14985105  0.16200341 -0.23610432]]

 [[ 0.11217672  0.14201447 -0.21393025]
  [ 0.15377352  0.15403908 -0.25577372]
  [ 0.11028167  0.14183886 -0.20606868]]]
3,3,3,60
[[[-0.33848372 -0.36689544 -0.284944  ]
  [-0.20189942 -0.20320873 -0.18103454]
  [ 0.0333641   0.05208361  0.01963145]]

 [[-0.26034912 -0.27594826 -0.22900179]
  [ 0.14416429  0.16854356  0.14214948]
  [ 0.3995232   0.44915229  0.36932898]]

 [[-0.17121053 -0.18206213 -0.16244631]
  [ 0.10107949  0.12521495  0.07966521]
  [ 0.2568973   0.29974779  0.20952551]]]
3,3,3,61
[[[-0.12713556 -0.08482055 -0.13224158]
  [-0.12236057 -0.09884989 -0.14820713]
  [-0.12940456 -0.09431243 -0.14015837]]

 [[-0.09883884 -0.06934191 -0.11431616]
  [-0.01406498 -0.0037898  -0.05200896]
  [-0.12568861 -0.10350242 -0.14594546]]

 [[-0.14974272 -0.10501725 -0.14144939]
  [-0.10978009 -0.08290239 -0.12272868]
  [-0.1568398  -0.11830606 -0.15309229]]]
3,3,3,62
[[[-0.05029916 -0.05113892 -0.05334752]
  [-0.2764504  -0.29619575 -0.23530066]
  [-0.4622438  -0.50566256 -0.3776668 ]]

 [[ 0.40405855  0.43711686  0.36549452]
  [ 0.25930083  0.26941243  0.25714901]
  [-0.31402633 -0.34579235 -0.27182356]]

 [[ 0.30680192  0.3395502   0.24109964]
  [ 0.27920374  0.2954661   0.24468745]
  [-0.1428743  -0.16705802 -0.13991733]]]
3,3,3,63
[[[ 0.03489657  0.03749434  0.00757738]
  [-0.03907965 -0.07043571 -0.06303568]
  [-0.32398528 -0.38369432 -0.30050987]]

 [[ 0.3925612   0.41317144  0.339939  ]
  [ 0.42376447  0.4095059   0.37168267]
  [-0.23283976 -0.29248625 -0.23971818]]

 [[ 0.08827017  0.09863744  0.04556021]
  [ 0.09465253  0.074447    0.05329137]
  [-0.26969463 -0.32224196 -0.26507524]]]
(3, 3, 3, 64)
[[[[  4.80015397e-01  -1.72696680e-01   3.75577137e-02 ...,
     -1.27135560e-01  -5.02991639e-02   3.48965675e-02]
   [  5.50379455e-01   2.08774377e-02   9.88311544e-02 ...,
     -8.48205537e-02  -5.11389151e-02   3.74943428e-02]
   [  4.29470569e-01   1.17273867e-01   3.40129584e-02 ...,
     -1.32241577e-01  -5.33475243e-02   7.57738389e-03]]

  [[  4.08547401e-01  -1.70375049e-01  -4.96297423e-03 ...,
     -1.22360572e-01  -2.76450396e-01  -3.90796512e-02]
   [  4.40074533e-01   4.73412387e-02   5.13819456e-02 ...,
     -9.88498852e-02  -2.96195745e-01  -7.04357103e-02]
   [  3.73466998e-01   1.62062630e-01   1.70863140e-03 ...,
     -1.48207128e-01  -2.35300660e-01  -6.30356818e-02]]

  [[ -6.51455522e-02  -1.54351532e-01  -1.38038069e-01 ...,
     -1.29404560e-01  -4.62243795e-01  -3.23985279e-01]
   [ -8.13870355e-02   4.18543853e-02  -1.01763301e-01 ...,
     -9.43124294e-02  -5.05662560e-01  -3.83694321e-01]
   [ -6.13601133e-02   1.35693997e-01  -1.15694344e-01 ...,
     -1.40158370e-01  -3.77666801e-01  -3.00509870e-01]]]


 [[[  3.10477257e-01  -1.87601492e-01   1.66595340e-01 ...,
     -9.88388434e-02   4.04058546e-01   3.92561197e-01]
   [  3.45739067e-01   3.10493708e-02   2.40750551e-01 ...,
     -6.93419054e-02   4.37116861e-01   4.13171440e-01]
   [  2.74769872e-01   1.48350164e-01   1.61559835e-01 ...,
     -1.14316158e-01   3.65494519e-01   3.39938998e-01]]

  [[  5.02023660e-02  -1.77571565e-01   1.51188180e-01 ...,
     -1.40649760e-02   2.59300828e-01   4.23764467e-01]
   [  4.06322069e-02   6.58102185e-02   2.20311403e-01 ...,
     -3.78979952e-03   2.69412428e-01   4.09505904e-01]
   [  3.86807770e-02   2.02298447e-01   1.56414255e-01 ...,
     -5.20089604e-02   2.57149011e-01   3.71682674e-01]]

  [[ -4.03383434e-01  -1.74399972e-01  -1.09849639e-01 ...,
     -1.25688612e-01  -3.14026326e-01  -2.32839763e-01]
   [ -4.53501314e-01   4.62574959e-02  -6.67438358e-02 ...,
     -1.03502415e-01  -3.45792353e-01  -2.92486250e-01]
   [ -3.67223352e-01   1.61688417e-01  -8.99365395e-02 ...,
     -1.45945460e-01  -2.71823555e-01  -2.39718184e-01]]]


 [[[ -5.08716851e-02  -1.66002661e-01   1.56279504e-02 ...,
     -1.49742723e-01   3.06801915e-01   8.82701725e-02]
   [ -5.86349145e-02   3.16787697e-02   7.59588331e-02 ...,
     -1.05017252e-01   3.39550197e-01   9.86374393e-02]
   [ -5.74681684e-02   1.29344285e-01   1.29030216e-02 ...,
     -1.41449392e-01   2.41099641e-01   4.55602147e-02]]

  [[ -2.85227507e-01  -1.66666731e-01  -7.96697661e-03 ...,
     -1.09780088e-01   2.79203743e-01   9.46525261e-02]
   [ -3.30669671e-01   5.47101051e-02   4.86797579e-02 ...,
     -8.29023942e-02   2.95466095e-01   7.44469985e-02]
   [ -2.62249678e-01   1.71572417e-01   5.44555223e-05 ...,
     -1.22728683e-01   2.44687453e-01   5.32913655e-02]]

  [[ -4.18516338e-01  -1.57048807e-01  -1.49133086e-01 ...,
     -1.56839803e-01  -1.42874300e-01  -2.69694626e-01]
   [ -4.85030204e-01   4.23195846e-02  -1.12076312e-01 ...,
     -1.18306056e-01  -1.67058021e-01  -3.22241962e-01]
   [ -3.50096762e-01   1.38710454e-01  -1.25339806e-01 ...,
     -1.53092295e-01  -1.39917329e-01  -2.65075237e-01]]]]
