tensor_name:  vgg_16/conv1/conv1_1/weights
3,3,4,0
[[[  4.80015397e-01   5.50379455e-01   4.29470569e-01   1.13388560e-04]
  [  4.08547401e-01   4.40074533e-01   3.73466998e-01   7.61439209e-04]
  [ -6.51455522e-02  -8.13870355e-02  -6.13601133e-02   4.74345696e-04]]

 [[  3.10477257e-01   3.45739067e-01   2.74769872e-01   4.11637186e-04]
  [  5.02023660e-02   4.06322069e-02   3.86807770e-02   1.38304755e-03]
  [ -4.03383434e-01  -4.53501314e-01  -3.67223352e-01   1.28411280e-03]]

 [[ -5.08716851e-02  -5.86349145e-02  -5.74681684e-02  -6.34787197e-04]
  [ -2.85227507e-01  -3.30669671e-01  -2.62249678e-01  -1.77454809e-03]
  [ -4.18516338e-01  -4.85030204e-01  -3.50096762e-01   2.10441509e-03]]]
3,3,4,1
[[[-0.17269668  0.02087744  0.11727387  0.00146379]
  [-0.17037505  0.04734124  0.16206263  0.00219835]
  [-0.15435153  0.04185439  0.135694    0.00067962]]

 [[-0.18760149  0.03104937  0.14835016 -0.00090772]
  [-0.17757156  0.06581022  0.20229845  0.00072191]
  [-0.17439997  0.0462575   0.16168842 -0.00218071]]

 [[-0.16600266  0.03167877  0.12934428  0.00097403]
  [-0.16666673  0.05471011  0.17157242 -0.00084941]
  [-0.15704881  0.04231958  0.13871045 -0.00225278]]]
3,3,4,2
[[[  3.75577137e-02   9.88311544e-02   3.40129584e-02  -1.79303065e-03]
  [ -4.96297423e-03   5.13819456e-02   1.70863140e-03  -1.66041229e-03]
  [ -1.38038069e-01  -1.01763301e-01  -1.15694344e-01  -2.96418410e-04]]

 [[  1.66595340e-01   2.40750551e-01   1.61559835e-01  -5.13275329e-04]
  [  1.51188180e-01   2.20311403e-01   1.56414255e-01   5.95636084e-04]
  [ -1.09849639e-01  -6.67438358e-02  -8.99365395e-02   3.56495693e-05]]

 [[  1.56279504e-02   7.59588331e-02   1.29030216e-02  -6.87221691e-05]
  [ -7.96697661e-03   4.86797579e-02   5.44555223e-05  -1.82305416e-03]
  [ -1.49133086e-01  -1.12076312e-01  -1.25339806e-01   1.73211924e-03]]]
3,3,4,3
[[[  4.08775389e-01   4.37032372e-01   3.54220927e-01   1.68607128e-03]
  [  3.14491093e-01   3.22750896e-01   2.78665572e-01   9.05156601e-04]
  [  3.44510257e-01   3.51013690e-01   3.01723540e-01   6.66802167e-04]]

 [[  9.91673693e-02   9.67388451e-02   9.78009403e-02   7.00010452e-04]
  [ -3.94421339e-01  -4.24664468e-01  -3.62367004e-01  -4.01875332e-05]
  [ -6.17709160e-02  -8.89540538e-02  -4.60787490e-02  -2.63872411e-04]]

 [[ -2.74197720e-02  -4.81492020e-02  -9.70711466e-04  -5.63400914e-04]
  [ -4.68224823e-01  -5.15416980e-01  -4.03173447e-01   1.08675600e-03]
  [ -1.92850590e-01  -2.35108465e-01  -1.46818504e-01   7.03229918e-04]]]
3,3,4,4
[[[ -8.20337012e-02  -1.09851457e-01  -8.65836963e-02  -2.04305374e-03]
  [  2.50965476e-01   2.39997879e-01   1.90843925e-01   5.88585863e-05]
  [  2.30597973e-01   2.38524318e-01   1.68421835e-01   2.94434140e-04]]

 [[ -1.81427315e-01  -2.33996511e-01  -1.86469465e-01  -2.92018929e-04]
  [  2.43798360e-01   2.05864489e-01   1.76087990e-01  -4.28683939e-04]
  [  2.28274003e-01   2.10355535e-01   1.54266149e-01   2.31265370e-03]]

 [[ -2.77901947e-01  -3.36890221e-01  -2.39638329e-01   1.78045273e-04]
  [ -1.17673725e-01  -1.77195445e-01  -1.41599089e-01   6.22104388e-04]
  [ -6.81315586e-02  -1.09548189e-01  -1.02669068e-01  -1.75137573e-03]]]
3,3,4,5
[[[ -4.82807644e-02  -1.92377031e-01   2.29682952e-01   2.15341119e-04]
  [ -8.60508829e-02  -2.23639682e-01   2.39403918e-01   1.17204757e-03]
  [ -4.34580185e-02  -1.87373206e-01   2.32435212e-01  -6.19930623e-04]]

 [[ -7.16413110e-02  -2.10348368e-01   2.51407683e-01   3.38533107e-04]
  [ -1.03272267e-01  -2.36093074e-01   2.67666608e-01   1.57048204e-03]
  [ -8.24363455e-02  -2.21655682e-01   2.37258807e-01   3.23963293e-04]]

 [[ -4.58678640e-02  -1.92640439e-01   2.25149244e-01   4.36268369e-04]
  [ -5.62276803e-02  -1.97426021e-01   2.59826958e-01   6.57131139e-04]
  [ -4.60685454e-02  -1.94271773e-01   2.20455468e-01   1.63183745e-03]]]
3,3,4,6
[[[  6.56183809e-02   9.78973731e-02   6.68324158e-02  -6.48704765e-04]
  [ -1.46961376e-01  -1.25584126e-01  -1.12072006e-01  -5.52026147e-04]
  [ -2.11909980e-01  -2.09138453e-01  -1.66514769e-01   7.62175332e-05]]

 [[  1.55516997e-01   2.00741157e-01   1.47219494e-01  -4.03717248e-04]
  [ -7.57858902e-02  -4.31273729e-02  -5.26724681e-02   6.76984346e-05]
  [ -1.91515967e-01  -1.79757357e-01  -1.55623496e-01  -1.53073983e-04]]

 [[  1.83865786e-01   2.28956848e-01   1.52024433e-01   6.01732812e-04]
  [  1.04386508e-01   1.41492218e-01   9.82329026e-02   1.06108702e-04]
  [  4.06519324e-03   2.03322694e-02   7.39815086e-03   8.83699104e-04]]]
3,3,4,7
[[[  1.17997281e-01   7.93518871e-02   4.13383804e-02  -6.53948344e-04]
  [  2.55298972e-01   2.12809205e-01   1.16577163e-01   9.55657379e-05]
  [  2.63398528e-01   2.34720662e-01   1.03120133e-01  -1.66259753e-03]]

 [[ -1.68040082e-01  -2.33289674e-01  -2.12591141e-01   2.67472729e-04]
  [ -3.51117030e-02  -1.07274085e-01  -1.49052441e-01   4.56791495e-05]
  [  1.85907379e-01   1.33855551e-01   3.82502601e-02  -6.93426467e-04]]

 [[ -2.21252292e-01  -2.82425582e-01  -2.13217601e-01  -7.53994274e-04]
  [ -1.28569543e-01  -1.98862240e-01  -1.85671866e-01   1.85738818e-03]
  [  9.33472142e-02   4.20177393e-02  -1.63493946e-03  -1.26743238e-04]]]
3,3,4,8
[[[  1.64276838e-01  -2.75177389e-01   1.30267844e-01  -8.98452592e-04]
  [  1.69287682e-01  -3.18530500e-01   9.58600938e-02   1.21853373e-03]
  [  1.69283032e-01  -2.74618059e-01   1.26365066e-01  -8.26674979e-04]]

 [[  1.96568444e-01  -2.93176323e-01   1.11360095e-01   1.73495704e-04]
  [  2.04575524e-01  -3.35548252e-01   7.72164986e-02   1.49904896e-04]
  [  1.93210021e-01  -3.00376773e-01   9.90585014e-02   1.44385325e-03]]

 [[  1.71749175e-01  -2.81641036e-01   1.06351323e-01   6.83704930e-05]
  [  2.19906688e-01  -2.80506372e-01   1.13431305e-01   1.56364834e-03]
  [  1.69036329e-01  -2.88209736e-01   9.44238901e-02  -8.82330467e-04]]]
3,3,4,9
[[[ -1.59787163e-01  -1.42328829e-01   3.29103470e-02   1.25879771e-04]
  [ -2.79697061e-01  -2.51145810e-01  -5.26647307e-02  -1.38905272e-03]
  [ -1.79828420e-01  -1.60953864e-01   1.59041267e-02   7.57250120e-04]]

 [[ -5.63814081e-02  -1.56457294e-02   1.52951479e-01  -5.09620120e-04]
  [ -1.44742340e-01  -9.18593705e-02   9.79724899e-02   1.54006563e-03]
  [ -6.29037023e-02  -2.07418278e-02   1.49151549e-01   1.05796522e-03]]

 [[  6.81652501e-02   1.05182156e-01   2.31639758e-01   7.17531075e-04]
  [  4.72991541e-02   9.84755233e-02   2.42600024e-01   5.18330839e-04]
  [  6.33433536e-02   1.01481386e-01   2.28801370e-01  -4.48988343e-04]]]
3,3,4,10
[[[  1.46136388e-01   1.73231885e-01   9.61545706e-02   3.60121892e-04]
  [  5.64986527e-01   6.08515918e-01   5.00213265e-01   1.64276699e-03]
  [  9.93647799e-02   1.13403551e-01   4.59891558e-02  -4.73600667e-04]]

 [[  3.04555404e-03   1.20651731e-02   3.84974666e-03  -4.24425671e-04]
  [  5.05531192e-01   5.28295040e-01   4.89867747e-01   1.22847687e-03]
  [ -3.82008366e-02  -4.31188755e-02  -4.15886380e-02  -6.48762856e-04]]

 [[ -4.53146368e-01  -4.89183962e-01  -3.82995754e-01  -1.94232992e-03]
  [ -3.66203755e-01  -4.06722009e-01  -3.13440055e-01   7.93474319e-04]
  [ -4.53613669e-01  -5.01091897e-01  -3.86704862e-01  -1.78481001e-04]]]
3,3,4,11
[[[ -9.03612897e-02   4.10316885e-02  -9.22253206e-02   9.99996089e-04]
  [  1.33286670e-01   2.94810146e-01   1.04385577e-01   8.10125668e-04]
  [  8.77168775e-02   2.45022506e-01   4.21199463e-02   1.58907159e-03]]

 [[ -1.88318565e-01  -5.23567908e-02  -1.59835622e-01   6.35231903e-04]
  [  8.85766149e-02   2.54456282e-01   8.75689238e-02   5.49569959e-04]
  [  6.01595603e-02   2.22733125e-01   3.87755893e-02  -1.65053454e-04]]

 [[ -2.76116341e-01  -1.64696112e-01  -2.24946335e-01   1.00222249e-04]
  [ -1.79876238e-01  -4.49110419e-02  -1.52323395e-01   5.33286424e-04]
  [ -1.22267805e-01   1.07738422e-02  -1.17437810e-01   2.26041302e-05]]]
3,3,4,12
[[[ -2.19030157e-01   2.92494416e-01  -1.55873314e-01  -1.26443093e-03]
  [ -1.97435543e-01   3.47783238e-01  -1.44314736e-01  -4.28979198e-04]
  [ -2.09705532e-01   3.07439357e-01  -1.47805110e-01   1.01733394e-03]]

 [[ -1.88595220e-01   3.57859194e-01  -1.41208082e-01   1.48400932e-03]
  [ -1.44620553e-01   4.37669992e-01  -1.06140725e-01   6.10694173e-04]
  [ -1.73706234e-01   3.79394472e-01  -1.23757340e-01  -2.07108460e-04]]

 [[ -2.12760344e-01   3.00694168e-01  -1.71393976e-01   4.91097395e-04]
  [ -1.93089277e-01   3.54189575e-01  -1.58955529e-01   1.27445601e-05]
  [ -2.06336349e-01   3.13856006e-01  -1.58271819e-01  -4.86146280e-04]]]
3,3,4,13
[[[ -1.26175478e-01   1.62965637e-02   5.22967987e-02  -6.14640070e-04]
  [ -2.26399019e-01  -7.86353722e-02  -1.37801236e-02  -1.75511464e-04]
  [ -3.05085570e-01  -1.87460065e-01  -1.11607119e-01  -7.53149943e-05]]

 [[  4.24111402e-03   1.77657306e-01   2.03158319e-01   1.75670406e-03]
  [ -6.01502173e-02   1.18445069e-01   1.71877295e-01   1.44856214e-03]
  [ -2.32161015e-01  -8.80144089e-02  -1.97016075e-02  -1.53572182e-03]]

 [[  3.81320342e-02   2.00323835e-01   2.01846048e-01  -9.32616706e-04]
  [  2.98582599e-03   1.72226697e-01   1.97767422e-01  -9.24926775e-04]
  [ -1.31732151e-01   3.45506333e-03   4.26386483e-02  -8.35052633e-04]]]
3,3,4,14
[[[ -9.93737653e-02  -1.26072139e-01  -8.32441747e-02  -6.68326160e-04]
  [ -4.17107373e-01  -4.59023654e-01  -3.81208956e-01   2.96015671e-04]
  [ -6.17119335e-02  -8.58032480e-02  -5.58534861e-02  -3.15031299e-04]]

 [[ -3.08400188e-02  -4.94737402e-02  -4.33545001e-02  -4.67942562e-04]
  [ -4.04181093e-01  -4.36910391e-01  -3.99291307e-01  -3.73359333e-04]
  [  3.51811610e-02   2.21790820e-02   1.17621832e-02   1.78375770e-03]]

 [[  2.97882557e-01   3.09386671e-01   2.29017183e-01  -1.32277701e-03]
  [  2.21920937e-01   2.24570900e-01   1.58756286e-01  -9.60782869e-04]
  [  3.40689301e-01   3.58142912e-01   2.63494223e-01   4.22705838e-04]]]
3,3,4,15
[[[  1.60492972e-01  -1.55553669e-01   1.57287687e-01   4.79616247e-05]
  [  1.50845870e-01  -1.92928806e-01   1.39658153e-01  -3.33883771e-04]
  [  1.26257464e-01  -1.89100251e-01   1.29653201e-01   9.24483407e-04]]

 [[  1.01854384e-01  -2.36215204e-01   1.00839920e-01   5.37036336e-04]
  [  3.75170559e-02  -3.29839289e-01   2.90120393e-02  -8.76780308e-04]
  [  8.43275115e-02  -2.51501888e-01   8.91952813e-02  -1.34118670e-03]]

 [[  1.03943102e-01  -2.01904014e-01   1.23847581e-01   1.77986373e-03]
  [  9.28537399e-02  -2.39626676e-01   1.04332887e-01   2.17455742e-03]
  [  1.05604060e-01  -1.96765676e-01   1.29770204e-01   1.52595970e-03]]]
3,3,4,16
[[[  1.88706547e-01  -5.31723350e-02   2.91195959e-02  -2.96750193e-04]
  [  1.81215644e-01  -1.04869179e-01  -3.29543278e-02  -7.36831571e-05]
  [  1.77801266e-01  -5.47288097e-02   3.60857993e-02   2.10519205e-03]]

 [[  2.31722817e-01  -9.41526219e-02  -4.47309427e-02   1.49270883e-04]
  [  2.25618899e-01  -1.48625806e-01  -1.12106241e-01   1.05418765e-03]
  [  2.25181833e-01  -9.15573686e-02  -3.49869356e-02  -9.76169598e-04]]

 [[  2.13622883e-01  -9.90901664e-02  -4.29164991e-02  -1.39784021e-03]
  [  2.37850174e-01  -1.22881040e-01  -8.18860233e-02   1.93783152e-03]
  [  2.08464861e-01  -9.60973501e-02  -3.52495946e-02  -1.46008283e-03]]]
3,3,4,17
[[[  9.34753865e-02   1.81297168e-01   5.09483516e-02  -1.07467186e-03]
  [  1.10058844e-01   1.98395967e-01   8.37437212e-02  -1.92984566e-03]
  [ -8.96054879e-02  -2.54678875e-02  -9.32614729e-02  -9.66958876e-04]]

 [[  9.87698957e-02   1.92336693e-01   7.11323991e-02   5.15427906e-04]
  [  1.12815462e-01   2.06355751e-01   1.03919454e-01   1.00791702e-04]
  [ -1.60945699e-01  -9.30082351e-02  -1.45294815e-01  -1.03721151e-03]]

 [[ -7.28550702e-02  -7.54500623e-04  -8.31292570e-02   1.19632296e-03]
  [ -1.06818415e-01  -3.50016095e-02  -9.71623659e-02  -5.52321435e-04]
  [ -2.14898407e-01  -1.61894172e-01  -1.83485031e-01   9.86951636e-04]]]
3,3,4,18
[[[  7.49733895e-02  -2.07719296e-01   1.90557480e-01   2.20160233e-03]
  [  4.18386832e-02  -2.58161038e-01   1.66676164e-01  -4.42939228e-04]
  [  9.04483646e-02  -1.95325106e-01   1.99065745e-01   1.11128774e-03]]

 [[  7.82376602e-02  -2.18358561e-01   2.01554701e-01   3.61813232e-04]
  [ -1.97668355e-02  -3.35441887e-01   1.11782320e-01   6.62604580e-04]
  [  9.55962166e-02  -2.03206554e-01   2.11256638e-01  -4.22907207e-04]]

 [[  8.57388601e-02  -1.99787065e-01   1.93103850e-01   3.27849266e-04]
  [  3.31895687e-02  -2.70007104e-01   1.47463843e-01  -6.57329336e-04]
  [  9.17757154e-02  -1.96090013e-01   1.90740466e-01  -9.36687924e-04]]]
3,3,4,19
[[[  1.26324385e-01  -1.38946190e-01  -4.37222868e-02  -4.38039133e-04]
  [  1.27719000e-01  -1.91356122e-01  -1.04160197e-01   1.15812596e-04]
  [  1.15887597e-01  -1.45427689e-01  -4.71277125e-02   6.91400492e-04]]

 [[  1.93598256e-01  -1.46354362e-01  -8.47202912e-02   1.11973716e-03]
  [  1.90134004e-01  -2.07049444e-01  -1.55789599e-01   2.52124225e-03]
  [  1.82731032e-01  -1.53688446e-01  -9.05470252e-02   2.87229253e-04]]

 [[  1.81763098e-01  -1.22674122e-01  -6.27764463e-02  -7.54579261e-04]
  [  2.11305365e-01  -1.47489175e-01  -1.01474576e-01   5.26181073e-04]
  [  1.70229182e-01  -1.30973741e-01  -7.12402165e-02   1.61059026e-03]]]
3,3,4,20
[[[  2.38499194e-01   2.55391061e-01   3.61803114e-01  -8.36465391e-04]
  [  1.41572744e-01   1.56778082e-01   3.08496326e-01   7.94966472e-04]
  [ -5.66975819e-03  -2.01128796e-02   1.40562028e-01  -9.03783075e-04]]

 [[  1.00570329e-01   1.20544158e-01   2.75603920e-01   1.57430663e-03]
  [ -1.31103203e-01  -1.17958814e-01   9.05414894e-02  -1.43037492e-03]
  [ -2.77928889e-01  -2.94115484e-01  -7.63713941e-02   3.42887943e-04]]

 [[ -2.56843269e-02  -3.01995203e-02   1.34977609e-01  -1.33765256e-03]
  [ -2.33637869e-01  -2.43615434e-01  -2.56014206e-02  -7.85776647e-04]
  [ -3.29488367e-01  -3.64647031e-01  -1.41631305e-01   2.26618038e-04]]]
3,3,4,21
[[[  3.55971783e-01   3.56314898e-01   2.39028737e-01  -8.56014085e-04]
  [  3.97887290e-01   3.79936904e-01   3.09875280e-01  -3.26682384e-05]
  [  8.64696875e-02   5.71688004e-02   6.47362098e-02   7.94421183e-04]]

 [[  1.82299823e-01   1.47908926e-01   9.00689811e-02  -1.59950578e-04]
  [ -2.52854265e-02  -8.45413879e-02  -7.61016682e-02  -1.81999916e-04]
  [ -2.79232264e-01  -3.42817664e-01  -2.55708873e-01  -2.14731484e-03]]

 [[  3.50416526e-02  -1.09227877e-02  -7.11482309e-04  -1.39723136e-03]
  [ -2.16924280e-01  -2.85869956e-01  -2.05563650e-01   8.17215012e-04]
  [ -3.31096411e-01  -3.95867020e-01  -2.50058174e-01  -1.13058719e-03]]]
3,3,4,22
[[[-0.12046139  0.00118498  0.16667192  0.00209613]
  [-0.17090142 -0.02594189  0.17097801  0.00131281]
  [-0.12404908  0.00151047  0.1687201   0.00033247]]

 [[-0.16372119 -0.01909573  0.17909338 -0.00141767]
  [-0.21932983 -0.05162582  0.17934875  0.00051631]
  [-0.17791158 -0.03037101  0.17024809 -0.00088464]]

 [[-0.13394448 -0.00957824  0.16053411 -0.00060924]
  [-0.15728132 -0.01042137  0.1914428  -0.00101545]
  [-0.13078149 -0.00378751  0.16880605  0.00032277]]]
3,3,4,23
[[[ -3.08338255e-01  -4.87027854e-01  -1.80467457e-01  -2.29462539e-03]
  [ -2.37905011e-01  -4.09513474e-01  -1.17244996e-01   1.07080594e-03]
  [  1.08455405e-01  -4.31569032e-02   1.81487694e-01   6.29162823e-04]]

 [[ -2.03620762e-01  -3.75806600e-01  -7.99025521e-02   5.82857348e-04]
  [ -1.17175855e-01  -2.76997328e-01  -3.49949521e-04   1.77080766e-03]
  [  2.66444415e-01   1.30394563e-01   3.40175331e-01  -2.87092553e-04]]

 [[  1.07057400e-01  -4.81424779e-02   1.84494838e-01  -9.29470334e-05]
  [  2.03627706e-01   6.29161298e-02   2.77538925e-01   8.56606639e-04]
  [  3.68812591e-01   2.43745610e-01   4.04833347e-01  -4.62649332e-04]]]
3,3,4,24
[[[-0.02083396  0.11533792  0.04404821 -0.00028313]
  [-0.07155016  0.06701437  0.00966333  0.00063241]
  [-0.12228294 -0.00246835 -0.04592194 -0.00059245]]

 [[-0.00051869  0.14725193  0.07451686 -0.00043084]
  [-0.06439608  0.08504013  0.02745619  0.00043707]
  [-0.14637132 -0.01696968 -0.05888153 -0.00030289]]

 [[-0.02194524  0.11463996  0.04025492  0.00104976]
  [-0.06314134  0.07585644  0.01520346  0.00091357]
  [-0.11968347  0.00035171 -0.04599162 -0.0001539 ]]]
3,3,4,25
[[[-0.15872632  0.1163794   0.09592837  0.00170604]
  [-0.16319121  0.13944666  0.12468038  0.00100459]
  [-0.15240695  0.12636176  0.10174061 -0.00200998]]

 [[-0.16730706  0.13736778  0.12232669  0.0011739 ]
  [-0.17251123  0.16125675  0.15278567 -0.00089515]
  [-0.16109975  0.1473745   0.12963735  0.00054916]]

 [[-0.17379802  0.10524599  0.07937991 -0.00145024]
  [-0.17338306  0.13363452  0.11532211  0.00060638]
  [-0.17065473  0.11229908  0.08544833 -0.00101882]]]
3,3,4,26
[[[ -7.14943707e-02  -7.70884380e-02  -4.38113064e-02  -8.62951740e-04]
  [ -4.69355851e-01  -4.95030999e-01  -3.91029984e-01   2.14594067e-03]
  [ -3.88053566e-01  -4.15718704e-01  -2.85649657e-01   8.57863983e-04]]

 [[  2.27950126e-01   2.41255358e-01   1.85681731e-01  -1.22828793e-03]
  [ -1.00678638e-01  -1.09213524e-01  -1.04213096e-01  -1.61578169e-03]
  [ -1.15352795e-01  -1.29570037e-01  -8.81287754e-02  -8.04079464e-04]]

 [[  3.74578476e-01   4.08630192e-01   2.72074014e-01   2.63010035e-03]
  [  3.24808031e-01   3.45526427e-01   2.49017000e-01   2.92870885e-04]
  [  2.21450076e-01   2.32177451e-01   1.74213678e-01  -3.94798437e-04]]]
3,3,4,27
[[[-0.05043453  0.10368702 -0.18848351  0.00157504]
  [ 0.02727965  0.17416753 -0.17792737 -0.00100168]
  [-0.00554895  0.13986839 -0.18292557  0.00047422]]

 [[-0.00488439  0.14413531 -0.18481646  0.0009619 ]
  [ 0.12199405  0.26450121 -0.12894408 -0.00077069]
  [ 0.05089047  0.19054219 -0.17017853  0.0005463 ]]

 [[-0.06530017  0.08363787 -0.19339779 -0.00103373]
  [ 0.00711     0.14819314 -0.18588647  0.00057899]
  [-0.02640966  0.1133359  -0.19133255  0.00121631]]]
3,3,4,28
[[[ -3.38394381e-02  -7.18570054e-02  -4.39950228e-02   7.70598766e-04]
  [ -1.87677285e-03  -2.27502156e-02  -3.68775949e-02  -1.93937554e-03]
  [  3.68801594e-01   3.87291312e-01   2.80888468e-01  -3.82736471e-04]]

 [[ -3.70247245e-01  -4.22475278e-01  -3.45962405e-01  -9.62856138e-05]
  [ -4.30766165e-01  -4.65058833e-01  -4.32902575e-01   3.37066100e-04]
  [  2.73943961e-01   2.85034418e-01   2.04956368e-01  -1.57124632e-05]]

 [[ -6.85893223e-02  -1.03522509e-01  -6.76356778e-02  -1.89934915e-04]
  [ -5.53761013e-02  -7.19793364e-02  -7.85235465e-02   1.19243760e-03]
  [  3.16829234e-01   3.39262426e-01   2.40741447e-01  -2.45282846e-03]]]
3,3,4,29
[[[  2.19569877e-01  -3.88477091e-03  -1.89854458e-01  -2.98061734e-03]
  [  2.70894051e-01   2.26958580e-02  -1.76336929e-01   2.83600057e-05]
  [  1.45175755e-01  -2.90257912e-02  -1.60507455e-01  -7.17236486e-04]]

 [[  2.28184730e-01  -1.42122926e-02  -1.93843380e-01   1.24057068e-03]
  [  2.78903902e-01   1.21491915e-02  -1.78362042e-01  -9.13927972e-04]
  [  1.43571958e-01  -4.76722531e-02  -1.70887142e-01  -1.08572119e-03]]

 [[  1.01330757e-01  -6.59068450e-02  -1.59135729e-01  -1.14139728e-03]
  [  1.05424121e-01  -8.42410773e-02  -1.84557512e-01  -1.60673622e-03]
  [  3.61547731e-02  -7.99596608e-02  -1.24429666e-01  -8.43273956e-05]]]
3,3,4,30
[[[ -2.92066574e-01  -2.63508290e-01  -2.33869821e-01  -3.43597523e-04]
  [ -2.15335354e-01  -1.65679723e-01  -1.67810217e-01  -1.00738078e-03]
  [ -1.23127244e-01  -7.20966905e-02  -9.85076800e-02   1.13447628e-03]]

 [[ -1.50502875e-01  -9.88568291e-02  -1.09126911e-01  -1.06349599e-03]
  [  1.40345454e-01   2.21382901e-01   1.69678926e-01   1.63291895e-03]
  [  1.22035392e-01   2.02424526e-01   1.31406531e-01   4.09015425e-04]]

 [[ -5.02232574e-02   2.67145922e-03  -4.03339416e-02  -2.67298106e-04]
  [  1.79611325e-01   2.61513501e-01   1.80102304e-01   3.02236411e-04]
  [  1.37286723e-01   2.15397730e-01   1.19875103e-01  -5.29180455e-04]]]
3,3,4,31
[[[ 0.14893703  0.12447353  0.12836744  0.0014211 ]
  [ 0.13036445  0.09525505  0.08564197  0.00077212]
  [ 0.13415098  0.11141251  0.12136985 -0.00080795]]

 [[ 0.14171803  0.11669213  0.11066163 -0.00092965]
  [ 0.04218798  0.00535035 -0.0145823  -0.0005929 ]
  [ 0.13311349  0.11018976  0.11101208 -0.0004348 ]]

 [[ 0.15279444  0.14212981  0.15973611  0.00023949]
  [ 0.11152215  0.09029514  0.09495541  0.00057058]
  [ 0.13753545  0.12912421  0.15397617  0.00021507]]]
3,3,4,32
[[[  1.32619515e-02  -7.46256039e-02  -1.10599749e-01  -1.18659718e-05]
  [  3.29272598e-02  -7.83106536e-02  -1.23675704e-01  -5.80861561e-05]
  [  1.89347882e-02  -7.12787062e-02  -1.06915414e-01   8.84614346e-05]]

 [[  5.95952980e-02  -4.74971496e-02  -9.24182013e-02   1.64628623e-03]
  [  1.23225600e-01  -7.27669103e-03  -6.34728074e-02   3.75134186e-05]
  [  4.79140207e-02  -6.13196008e-02  -1.06018260e-01   5.58325963e-04]]

 [[  1.08909262e-02  -7.25192353e-02  -1.02833636e-01  -7.02959078e-04]
  [  4.48981002e-02  -6.05912544e-02  -1.01790354e-01  -5.88551979e-04]
  [  8.16116855e-03  -7.64832944e-02  -1.07569188e-01  -4.07984888e-04]]]
3,3,4,33
[[[ -5.03388140e-03  -1.56121626e-01   5.71336085e-03  -1.03047758e-03]
  [ -3.74878608e-02  -1.97528183e-01  -1.81761980e-02  -3.39679216e-04]
  [ -1.49115011e-01  -3.10258120e-01  -1.21902436e-01   1.70111062e-03]]

 [[  1.84213206e-01   4.03459668e-02   1.93121225e-01   3.41126637e-04]
  [  2.65389532e-01   1.15483850e-01   2.83511579e-01  -1.14357950e-04]
  [ -4.23344895e-02  -2.03197405e-01  -2.15079561e-02  -1.46342453e-03]]

 [[  1.19107686e-01  -2.44378392e-02   1.16721585e-01  -3.60236067e-04]
  [  1.98541522e-01   5.19780032e-02   2.06063733e-01   1.02048100e-03]
  [ -1.94161944e-02  -1.74380213e-01  -8.98326188e-03   4.07086191e-04]]]
3,3,4,34
[[[ -2.70073444e-01  -2.90003479e-01  -2.44796559e-01   3.46525281e-04]
  [ -3.03981334e-01  -3.22223425e-01  -2.62617111e-01  -6.67189539e-04]
  [ -3.98545563e-01  -4.27483946e-01  -3.36425692e-01   1.13204913e-03]]

 [[  1.14720054e-01   1.27246067e-01   9.55411494e-02   7.82054412e-05]
  [  3.78111184e-01   4.01585072e-01   3.73997629e-01  -1.52897136e-03]
  [ -1.03537932e-01  -1.06837779e-01  -8.73369649e-02  -5.45107236e-04]]

 [[  1.49368986e-01   1.67306423e-01   9.35268700e-02  -1.85020035e-03]
  [  4.07268018e-01   4.39276874e-01   3.65221560e-01  -9.20031220e-04]
  [  2.33304277e-02   2.67152078e-02  -3.08947964e-03  -4.07330343e-04]]]
3,3,4,35
[[[ -4.03229028e-01  -4.32260394e-01  -3.05302829e-01   8.80493317e-04]
  [ -1.94614068e-01  -2.06736252e-01  -1.67535037e-01  -7.16538518e-04]
  [  6.70514852e-02   7.58071691e-02   3.39720920e-02  -5.80085871e-05]]

 [[ -3.04495096e-01  -3.23996127e-01  -2.41429105e-01  -2.14613974e-04]
  [  1.54334769e-01   1.63296551e-01   1.42289281e-01   1.11243140e-03]
  [  4.09199715e-01   4.44485128e-01   3.44153941e-01   2.03997377e-04]]

 [[ -1.37970507e-01  -1.44507363e-01  -1.04618713e-01   9.30070935e-04]
  [  1.30484581e-01   1.48839787e-01   9.73473936e-02  -6.42454193e-04]
  [  2.65709609e-01   3.03147227e-01   1.86108336e-01   6.36376673e-04]]]
3,3,4,36
[[[ -1.71640217e-01   5.06316163e-02   6.09379970e-02   5.10957791e-04]
  [ -2.03851864e-01   4.08999696e-02   6.91427067e-02   1.17332523e-03]
  [ -1.73067123e-01   5.20107076e-02   6.01495430e-02  -1.23930804e-03]]

 [[ -2.03079000e-01   4.16843630e-02   7.31860846e-02  -1.14816020e-03]
  [ -2.28493020e-01   3.88939120e-02   8.91655385e-02   2.59644657e-05]
  [ -2.02748358e-01   4.43667136e-02   7.41780549e-02   9.21108003e-04]]

 [[ -1.74136609e-01   4.92637046e-02   6.18723109e-02   3.41892825e-04]
  [ -1.99777722e-01   4.50038463e-02   7.53613859e-02   1.30976562e-03]
  [ -1.70285881e-01   5.47382645e-02   6.65422678e-02  -1.35283673e-03]]]
3,3,4,37
[[[ -3.68897676e-01  -4.31032568e-01  -3.28162521e-01  -2.54034647e-03]
  [ -2.83717424e-01  -3.50037009e-01  -2.79851943e-01   1.38248794e-03]
  [ -2.97187001e-01  -3.62241358e-01  -2.96100914e-01   4.97765373e-04]]

 [[ -8.74576122e-02  -1.20457523e-01  -9.96494219e-02  -1.29736750e-03]
  [  3.80950421e-01   3.61924678e-01   3.34116101e-01  -9.54193529e-04]
  [  5.26927151e-02   2.33462155e-02   4.53636842e-03   5.85956499e-04]]

 [[  7.53673762e-02   7.61803165e-02   4.45810929e-02  -1.73954968e-03]
  [  5.18441200e-01   5.39468646e-01   4.59542006e-01   3.27636109e-04]
  [  1.96055353e-01   2.01728374e-01   1.34631634e-01  -8.76455684e-04]]]
3,3,4,38
[[[  1.30815029e-01   2.94441879e-01   1.71195298e-01   5.33363898e-04]
  [  1.54596075e-01   3.29210728e-01   2.16697648e-01  -7.60823663e-04]
  [ -1.33177440e-03   1.50417060e-01   5.64939007e-02   3.06655827e-04]]

 [[ -6.25233650e-02   1.01203464e-01   1.64465327e-02  -2.78871786e-03]
  [ -9.86046866e-02   7.38054886e-02   4.29484574e-03  -7.74785818e-04]
  [ -1.83171511e-01  -3.11172325e-02  -8.40767920e-02   3.30188836e-04]]

 [[ -1.70109630e-01  -3.73491682e-02  -8.88792425e-02  -1.00366866e-04]
  [ -2.35845253e-01  -9.56979990e-02  -1.29369870e-01  -6.96551695e-04]
  [ -2.34545246e-01  -1.11130260e-01  -1.33945644e-01  -1.14147365e-03]]]
3,3,4,39
[[[-0.0358882  -0.10993682  0.10265407  0.0002848 ]
  [-0.11990397 -0.19758695  0.04595486  0.0002899 ]
  [-0.04643798 -0.12538068  0.09067708  0.00054781]]

 [[-0.04197054 -0.11337133  0.12120296 -0.00076238]
  [-0.17326267 -0.24885692  0.0188637   0.00069629]
  [-0.05966521 -0.13633575  0.10113112  0.00070712]]

 [[-0.03258639 -0.1041396   0.10223453 -0.00060281]
  [-0.11105626 -0.18644011  0.04860276  0.00034494]
  [-0.05120771 -0.12792586  0.08034358 -0.0018769 ]]]
3,3,4,40
[[[-0.10626303  0.06623434 -0.11063665  0.0006883 ]
  [-0.11452698  0.06585026 -0.11243556  0.00086051]
  [-0.16372663 -0.0040107  -0.15568645 -0.00024142]]

 [[-0.00123176  0.19449428 -0.01835439 -0.00079336]
  [ 0.03562608  0.24023479  0.02441533  0.00092082]
  [-0.10281684  0.07850371 -0.10447415  0.00207832]]

 [[-0.01397882  0.17332828 -0.04090111  0.00137141]
  [ 0.00525392  0.20117153 -0.01628016  0.00260798]
  [-0.09490839  0.07894424 -0.10676192  0.00091297]]]
3,3,4,41
[[[  2.91369915e-01   1.80295989e-01   3.30129862e-01   2.84246518e-04]
  [  3.11672509e-01   2.03400090e-01   3.58926535e-01   8.47124262e-04]
  [  3.77337724e-01   2.83428222e-01   3.96160275e-01   6.08939619e-04]]

 [[ -9.71558020e-02  -2.31872842e-01  -4.46805311e-03   2.54500046e-04]
  [ -2.70264834e-01  -4.07386810e-01  -1.69336021e-01   6.65826723e-04]
  [  1.52612761e-01   3.89690883e-02   2.17563719e-01   1.93231317e-04]]

 [[ -2.22893253e-01  -3.65712166e-01  -1.14031255e-01   1.15730823e-03]
  [ -4.04626906e-01  -5.51754475e-01  -2.85876036e-01   3.99426935e-04]
  [  7.68054649e-03  -1.16164185e-01   8.60797614e-02   4.79181152e-04]]]
3,3,4,42
[[[ -6.31071255e-02  -7.04995841e-02  -5.86972833e-02   2.03584961e-04]
  [  1.50444180e-01   1.68975696e-01   1.37751579e-01  -1.60933132e-06]
  [  2.52608031e-01   2.85375357e-01   2.21436575e-01   3.78645607e-04]]

 [[ -2.18599498e-01  -2.30567768e-01  -1.90223768e-01  -3.08311020e-04]
  [  1.30341314e-02   2.52011139e-02   1.99450254e-02   1.53789570e-05]
  [  2.11167246e-01   2.40656734e-01   1.95112780e-01  -3.14908684e-04]]

 [[ -2.29798943e-01  -2.49716133e-01  -1.91436365e-01  -5.31804864e-04]
  [ -1.49255469e-01  -1.52640134e-01  -1.29125312e-01  -4.80456598e-04]
  [  5.94821200e-03   1.55887157e-02   4.74228873e-04   6.61657687e-05]]]
3,3,4,43
[[[  2.86359966e-01   3.07717890e-01   1.84787169e-01  -4.15943185e-04]
  [  2.78240681e-01   2.98371881e-01   1.82961330e-01  -8.89639021e-04]
  [  3.08421880e-01   3.41272891e-01   2.13226527e-01  -1.77734357e-03]]

 [[ -2.25602072e-02  -3.18222530e-02  -6.46763146e-02  -6.38901838e-04]
  [ -3.07044864e-01  -3.22560668e-01  -3.31725121e-01  -9.96974530e-04]
  [  2.45076064e-02   2.63870042e-02  -1.42033221e-02   1.75873283e-04]]

 [[ -1.19400039e-01  -1.43751875e-01  -1.10158324e-01   2.69284181e-04]
  [ -4.12016422e-01  -4.43641156e-01  -3.79986167e-01  -1.53055866e-04]
  [ -1.02986649e-01  -1.16765022e-01  -8.94798487e-02   1.34340650e-03]]]
3,3,4,44
[[[ -4.25485559e-02   9.66970101e-02   1.05085261e-02   3.45907611e-04]
  [ -1.32630855e-01   4.67646774e-03  -5.51802665e-02   2.10194802e-03]
  [ -2.56320834e-01  -1.50411174e-01  -1.76265195e-01   7.73363747e-04]]

 [[  1.16913289e-01   2.79658705e-01   1.70957074e-01   9.86250117e-04]
  [  6.13770373e-02   2.21472442e-01   1.38755485e-01   2.21146998e-04]
  [ -2.14874953e-01  -9.14772451e-02  -1.33287042e-01  -7.00817109e-05]]

 [[  3.55472639e-02   1.83631420e-01   6.85702264e-02   9.25188535e-04]
  [  1.40741945e-03   1.49391815e-01   5.75270206e-02   1.17929047e-03]
  [ -1.74198121e-01  -5.94068617e-02  -1.14718542e-01  -2.23895680e-04]]]
3,3,4,45
[[[  1.03452407e-01   9.88399908e-02   1.06680267e-01   1.02086633e-03]
  [  3.30464453e-01   3.56243223e-01   2.86233097e-01  -6.45530527e-04]
  [  5.12942135e-01   5.75109661e-01   4.25108880e-01   7.19962816e-04]]

 [[ -4.41290259e-01  -4.80582595e-01  -3.77094060e-01  -7.36318616e-05]
  [ -2.50680268e-01  -2.64927894e-01  -2.45718718e-01   5.86840499e-04]
  [  3.64112139e-01   3.97563100e-01   3.07167470e-01   8.69760115e-04]]

 [[ -4.37943339e-01  -4.86055195e-01  -3.40692461e-01  -2.04954722e-05]
  [ -3.38343978e-01  -3.68056089e-01  -2.95589030e-01  -1.69405341e-03]
  [  1.56436414e-01   1.67435169e-01   1.32255882e-01   2.97567545e-04]]]
3,3,4,46
[[[ -2.84832176e-02  -6.72688857e-02  -1.30869240e-01  -1.07683893e-03]
  [ -7.60079473e-02  -1.35300472e-01  -1.86742201e-01   1.33525417e-03]
  [ -2.01668918e-01  -2.58517206e-01  -2.53508151e-01  -7.27095117e-04]]

 [[  2.25514352e-01   1.86515421e-01   5.35440668e-02  -1.09527413e-04]
  [  3.02002609e-01   2.43764937e-01   1.17272660e-01   9.90731409e-04]
  [ -6.01307862e-02  -1.24988474e-01  -1.79943159e-01  -1.28030963e-03]]

 [[  1.43791035e-01   1.15885414e-01  -1.71319097e-02   2.15743552e-04]
  [  2.19821334e-01   1.75286561e-01   4.50552292e-02  -1.09832990e-03]
  [ -3.16429213e-02  -8.06387812e-02  -1.45324454e-01   1.00540719e-03]]]
3,3,4,47
[[[ -4.51399028e-01  -4.84057099e-01  -3.62839460e-01  -1.16053503e-03]
  [ -4.43578690e-01  -4.65595543e-01  -3.82482618e-01  -1.48905128e-05]
  [ -8.71764496e-02  -9.07742083e-02  -7.34804273e-02   1.57327682e-03]]

 [[ -2.21623719e-01  -2.35727638e-01  -1.85247317e-01  -2.74451659e-03]
  [ -1.11840693e-02  -4.94583417e-03  -8.14520195e-03   4.15172108e-04]
  [  2.43712008e-01   2.69822836e-01   2.10257933e-01   3.34921671e-04]]

 [[  1.43038690e-01   1.53932258e-01   1.15107872e-01   2.60236207e-04]
  [  3.98770005e-01   4.35935706e-01   3.44564468e-01   3.37867066e-04]
  [  4.07074630e-01   4.54858005e-01   3.25932920e-01  -7.06413528e-04]]]
3,3,4,48
[[[  1.96185544e-01   1.67565435e-01   6.44080713e-02  -1.51823006e-05]
  [ -3.69976610e-02  -9.24774930e-02  -1.03627868e-01   1.20362774e-05]
  [ -3.01728070e-01  -3.57969701e-01  -2.61545897e-01  -1.20400800e-03]]

 [[  3.40618372e-01   3.08060050e-01   1.61978588e-01  -1.10826944e-03]
  [  8.39938372e-02   2.13681739e-02  -2.99310964e-02   5.44598850e-04]
  [ -3.30690533e-01  -3.98592234e-01  -3.30316007e-01   1.01187581e-03]]

 [[  2.55993217e-01   2.34663248e-01   7.78414086e-02   1.26060331e-03]
  [  1.80333495e-01   1.36645108e-01   5.64207211e-02   2.80121923e-04]
  [ -8.77605826e-02  -1.34772331e-01  -1.10275768e-01  -5.07225923e-04]]]
3,3,4,49
[[[ -8.97931457e-02  -5.52446060e-02   9.33597162e-02  -8.63154302e-04]
  [  5.86711690e-02   1.34769008e-01   2.61836171e-01  -1.36802904e-03]
  [  2.53234833e-01   3.33249241e-01   3.96732688e-01  -6.73012037e-05]]

 [[ -4.03994083e-01  -3.64839733e-01  -1.61634386e-01   1.29460590e-03]
  [ -2.36142859e-01  -1.55243859e-01   2.31066477e-02   2.83644127e-04]
  [  1.43068507e-01   2.33516157e-01   3.38173360e-01  -2.10888265e-05]]

 [[ -3.50294858e-01  -3.31248164e-01  -1.36940807e-01   4.65010584e-04]
  [ -2.16985032e-01  -1.59631297e-01   1.48149990e-02  -5.43780334e-04]
  [  6.08755350e-02   1.24874108e-01   2.29117662e-01   1.12339365e-03]]]
3,3,4,50
[[[ -1.51110873e-01   1.25660345e-01   4.01619263e-03  -6.30480237e-04]
  [ -1.62097588e-01   1.34524375e-01   1.03108706e-02  -8.48751748e-04]
  [ -1.46770179e-01   1.32626846e-01   4.11674706e-03   8.10199243e-04]]

 [[ -1.58298731e-01   1.38941646e-01   2.06385013e-02  -1.72075198e-03]
  [ -1.54860288e-01   1.62634149e-01   4.23107333e-02   1.60069918e-04]
  [ -1.54289648e-01   1.45502672e-01   2.15735007e-02  -9.91763081e-04]]

 [[ -1.54305533e-01   1.24660276e-01   4.98014083e-03   2.20430922e-03]
  [ -1.61380813e-01   1.36745378e-01   1.61965080e-02   1.05267495e-03]
  [ -1.47153080e-01   1.33727431e-01   1.04908813e-02   2.68625724e-03]]]
3,3,4,51
[[[  4.63700473e-01   5.00400960e-01   3.78148049e-01  -8.68916803e-04]
  [  1.66020945e-01   1.57932520e-01   1.49958238e-01  -2.80754035e-03]
  [ -1.46743089e-01  -1.88454032e-01  -9.93825570e-02   5.72784687e-04]]

 [[  3.98165435e-01   4.24909770e-01   3.32956612e-01   1.16434961e-03]
  [ -2.40648940e-01  -2.66253561e-01  -2.20603868e-01   1.80966128e-03]
  [ -6.12233102e-01  -6.71400070e-01  -5.18702567e-01  -7.11895002e-04]]

 [[  3.27685863e-01   3.58545274e-01   2.70942211e-01  -1.45243853e-03]
  [ -3.20339911e-02  -4.49670255e-02  -1.17181307e-02   2.01564608e-03]
  [ -3.08808595e-01  -3.50572735e-01  -2.23098278e-01   1.91191758e-03]]]
3,3,4,52
[[[  1.26994550e-01  -7.44272694e-02   5.26880398e-02   5.89157396e-04]
  [  1.68935448e-01  -7.75721967e-02   2.54054330e-02   3.32750409e-04]
  [  2.38035515e-01   1.52011551e-02   8.82033035e-02   1.32949976e-03]]

 [[ -1.22762937e-03  -2.33091280e-01  -8.01997706e-02  -1.47000363e-04]
  [  6.92391593e-04  -2.78018236e-01  -1.50458962e-01  -7.25476537e-04]
  [  2.05085993e-01  -4.59912717e-02   4.14873622e-02  -2.73849844e-04]]

 [[  3.57718803e-02  -1.56895638e-01   1.96650671e-03   3.03490466e-04]
  [  5.41123189e-02  -1.82696432e-01  -4.74085957e-02  -1.33917772e-03]
  [  1.69655666e-01  -4.25656363e-02   5.64493537e-02   1.39901950e-03]]]
3,3,4,53
[[[ -2.73974717e-01  -3.38722199e-01  -2.70789355e-01  -2.48061202e-04]
  [ -2.63310194e-01  -3.29489619e-01  -3.14782560e-01   1.05505611e-03]
  [  6.89496398e-02   3.88309024e-02  -5.62812947e-03   2.02714931e-03]]

 [[ -7.12103248e-02  -1.43520504e-01  -1.58877835e-01  -5.88798197e-04]
  [  1.28826099e-02  -5.69121465e-02  -1.35780364e-01   1.07920961e-03]
  [  3.03843200e-01   2.72664219e-01   1.41668722e-01   1.17129879e-03]]

 [[  1.22695819e-01   7.19730631e-02  -5.40927518e-03   6.83012622e-05]
  [  2.17733368e-01   1.70078337e-01   3.15883271e-02   1.63907965e-03]
  [  2.99936146e-01   2.82923579e-01   1.11484297e-01   2.87137518e-04]]]
3,3,4,54
[[[  4.51747254e-02  -2.61301082e-02   1.10607408e-01   4.53318004e-04]
  [ -2.45497495e-01  -3.32798719e-01  -1.44173667e-01  -9.82096652e-04]
  [ -2.73189932e-01  -3.67730200e-01  -1.68463469e-01  -7.80823611e-05]]

 [[  1.95946127e-01   1.35003686e-01   2.53484011e-01   1.28798978e-03]
  [ -1.23408929e-01  -2.03285918e-01  -3.42523716e-02  -1.92197680e-03]
  [ -1.74905241e-01  -2.64865339e-01  -8.12317953e-02   7.97121902e-04]]

 [[  3.00626665e-01   2.47526586e-01   3.26859027e-01   3.12882505e-04]
  [  1.83255345e-01   1.17499143e-01   2.35761940e-01  -3.43348976e-04]
  [  9.99696925e-02   2.21105684e-02   1.54124647e-01   1.44580088e-04]]]
3,3,4,55
[[[ -2.38493338e-01  -7.35273808e-02  -1.18195258e-01  -2.74479011e-04]
  [ -1.74975753e-01   2.08353326e-02  -4.71791252e-02  -1.16551993e-03]
  [ -4.20844108e-02   1.53152242e-01   5.60752414e-02   6.73301111e-05]]

 [[ -2.27758721e-01  -4.32924628e-02  -9.87838954e-02   7.38678849e-04]
  [ -1.22466579e-01   9.52897295e-02   1.39012812e-02  -8.74078425e-04]
  [  3.50056551e-02   2.53587991e-01   1.43193200e-01  -3.58817342e-04]]

 [[ -1.33780688e-01   4.17840295e-02  -3.45173553e-02   2.64813454e-04]
  [ -5.73729165e-02   1.50199324e-01   5.09751029e-02   3.53883894e-04]
  [  4.02998440e-02   2.46469945e-01   1.23141922e-01  -1.14076363e-04]]]
3,3,4,56
[[[  9.12305620e-03  -1.15336858e-01   4.29893471e-02  -3.20871099e-04]
  [  8.72102976e-02  -4.04662266e-02   9.85405147e-02  -7.97601766e-04]
  [  2.32655138e-01   1.29669949e-01   2.29410529e-01   5.63011330e-04]]

 [[ -1.64952904e-01  -3.09078455e-01  -1.26956955e-01   1.47141039e-03]
  [ -1.15515195e-01  -2.64331251e-01  -1.03649266e-01  -5.22812770e-04]
  [  1.91749185e-01   7.23028705e-02   1.85455158e-01   1.26944564e-03]]

 [[ -5.25783673e-02  -1.83052063e-01  -1.57835074e-02  -3.48622212e-04]
  [ -8.67471471e-03  -1.44732818e-01   4.24273638e-03  -7.89923302e-04]
  [  1.62966505e-01   5.13972640e-02   1.58938885e-01   5.54912949e-05]]]
3,3,4,57
[[[  2.99678087e-01   1.70631081e-01   3.53236228e-01   4.93234373e-04]
  [  2.39003152e-02  -1.33166671e-01   1.17565043e-01   1.36533426e-03]
  [ -8.35123584e-02  -2.49448776e-01   2.05497947e-02   3.19052226e-04]]

 [[  2.30453759e-01   9.27076265e-02   2.98866808e-01  -2.46528070e-03]
  [ -2.41969988e-01  -4.12189454e-01  -1.28682598e-01   1.44919509e-03]
  [ -3.11172426e-01  -4.89763707e-01  -1.86652526e-01  -3.41151550e-04]]

 [[  2.75735348e-01   1.46760330e-01   3.25029105e-01  -1.83304795e-03]
  [  4.11275662e-02  -1.13705084e-01   1.29520938e-01   1.45271164e-03]
  [ -4.33028750e-02  -2.05637738e-01   5.38637713e-02  -1.46628800e-03]]]
3,3,4,58
[[[ -3.19988966e-01  -3.67526531e-01  -2.84681618e-01   3.56855599e-04]
  [ -2.89746299e-02  -4.09343056e-02  -4.44047265e-02  -7.52406311e-04]
  [  1.50852606e-01   1.73589796e-01   1.11910567e-01  -4.74784407e-04]]

 [[ -3.17024529e-01  -3.62138659e-01  -2.85965323e-01   8.53169331e-05]
  [  2.93176144e-01   2.97577500e-01   2.73522764e-01   8.69424606e-04]
  [  4.86247689e-01   5.29540300e-01   4.44558173e-01  -1.00016082e-03]]

 [[ -3.53868037e-01  -3.91899109e-01  -3.00994813e-01   1.84323260e-04]
  [ -2.38770470e-02  -2.74247322e-02  -2.33768374e-02   7.26194179e-04]
  [  1.43340126e-01   1.71046570e-01   1.17677592e-01  -1.18355372e-03]]]
3,3,4,59
[[[  8.72597471e-02   1.33395687e-01  -2.02890083e-01   6.81760372e-04]
  [  1.25106528e-01   1.43303603e-01  -2.44807452e-01   1.60608703e-04]
  [  8.55238587e-02   1.33845493e-01  -1.93389341e-01  -3.75615957e-04]]

 [[  1.49862722e-01   1.60177231e-01  -2.46885374e-01  -2.00135051e-03]
  [  1.94910869e-01   1.76016212e-01  -2.86743253e-01  -1.39442753e-04]
  [  1.49851054e-01   1.62003413e-01  -2.36104324e-01  -1.66748406e-03]]

 [[  1.12176716e-01   1.42014474e-01  -2.13930249e-01  -3.65579093e-04]
  [  1.53773516e-01   1.54039085e-01  -2.55773723e-01  -2.07287769e-04]
  [  1.10281669e-01   1.41838863e-01  -2.06068680e-01   9.45783395e-04]]]
3,3,4,60
[[[ -3.38483721e-01  -3.66895437e-01  -2.84943998e-01  -1.63135421e-03]
  [ -2.01899424e-01  -2.03208730e-01  -1.81034535e-01   2.16956134e-04]
  [  3.33640985e-02   5.20836115e-02   1.96314529e-02   4.53040295e-04]]

 [[ -2.60349125e-01  -2.75948256e-01  -2.29001790e-01  -3.05505266e-04]
  [  1.44164294e-01   1.68543562e-01   1.42149478e-01   6.61101949e-04]
  [  3.99523199e-01   4.49152291e-01   3.69328976e-01  -9.12765565e-04]]

 [[ -1.71210527e-01  -1.82062134e-01  -1.62446305e-01   7.03925965e-04]
  [  1.01079494e-01   1.25214949e-01   7.96652064e-02   3.60667356e-04]
  [  2.56897300e-01   2.99747795e-01   2.09525511e-01  -8.12537255e-05]]]
3,3,4,61
[[[ -1.27135560e-01  -8.48205537e-02  -1.32241577e-01  -6.98905438e-04]
  [ -1.22360572e-01  -9.88498852e-02  -1.48207128e-01  -1.89969665e-04]
  [ -1.29404560e-01  -9.43124294e-02  -1.40158370e-01  -4.36439761e-04]]

 [[ -9.88388434e-02  -6.93419054e-02  -1.14316158e-01  -5.72267636e-05]
  [ -1.40649760e-02  -3.78979952e-03  -5.20089604e-02   2.67642288e-04]
  [ -1.25688612e-01  -1.03502415e-01  -1.45945460e-01  -3.22441745e-04]]

 [[ -1.49742723e-01  -1.05017252e-01  -1.41449392e-01  -4.20855562e-04]
  [ -1.09780088e-01  -8.29023942e-02  -1.22728683e-01   6.55753247e-04]
  [ -1.56839803e-01  -1.18306056e-01  -1.53092295e-01   6.57919270e-04]]]
3,3,4,62
[[[ -5.02991639e-02  -5.11389151e-02  -5.33475243e-02   1.13640062e-03]
  [ -2.76450396e-01  -2.96195745e-01  -2.35300660e-01   1.49572894e-04]
  [ -4.62243795e-01  -5.05662560e-01  -3.77666801e-01   6.33388772e-05]]

 [[  4.04058546e-01   4.37116861e-01   3.65494519e-01   3.88983201e-04]
  [  2.59300828e-01   2.69412428e-01   2.57149011e-01   1.10025972e-03]
  [ -3.14026326e-01  -3.45792353e-01  -2.71823555e-01   8.24989926e-04]]

 [[  3.06801915e-01   3.39550197e-01   2.41099641e-01   4.98259964e-04]
  [  2.79203743e-01   2.95466095e-01   2.44687453e-01   4.59204981e-04]
  [ -1.42874300e-01  -1.67058021e-01  -1.39917329e-01  -1.50147208e-03]]]
3,3,4,63
[[[  3.48965675e-02   3.74943428e-02   7.57738389e-03   6.42915606e-04]
  [ -3.90796512e-02  -7.04357103e-02  -6.30356818e-02   1.18428504e-03]
  [ -3.23985279e-01  -3.83694321e-01  -3.00509870e-01  -1.95312445e-04]]

 [[  3.92561197e-01   4.13171440e-01   3.39938998e-01   4.46895836e-04]
  [  4.23764467e-01   4.09505904e-01   3.71682674e-01   8.00598820e-04]
  [ -2.32839763e-01  -2.92486250e-01  -2.39718184e-01  -8.35361949e-04]]

 [[  8.82701725e-02   9.86374393e-02   4.55602147e-02  -3.19052342e-04]
  [  9.46525261e-02   7.44469985e-02   5.32913655e-02   1.62428978e-03]
  [ -2.69694626e-01  -3.22241962e-01  -2.65075237e-01  -9.13318290e-05]]]
(3, 3, 4, 64)
[[[[  4.80015397e-01  -1.72696680e-01   3.75577137e-02 ...,
     -1.27135560e-01  -5.02991639e-02   3.48965675e-02]
   [  5.50379455e-01   2.08774377e-02   9.88311544e-02 ...,
     -8.48205537e-02  -5.11389151e-02   3.74943428e-02]
   [  4.29470569e-01   1.17273867e-01   3.40129584e-02 ...,
     -1.32241577e-01  -5.33475243e-02   7.57738389e-03]
   [  1.13388560e-04   1.46378891e-03  -1.79303065e-03 ...,
     -6.98905438e-04   1.13640062e-03   6.42915606e-04]]

  [[  4.08547401e-01  -1.70375049e-01  -4.96297423e-03 ...,
     -1.22360572e-01  -2.76450396e-01  -3.90796512e-02]
   [  4.40074533e-01   4.73412387e-02   5.13819456e-02 ...,
     -9.88498852e-02  -2.96195745e-01  -7.04357103e-02]
   [  3.73466998e-01   1.62062630e-01   1.70863140e-03 ...,
     -1.48207128e-01  -2.35300660e-01  -6.30356818e-02]
   [  7.61439209e-04   2.19835248e-03  -1.66041229e-03 ...,
     -1.89969665e-04   1.49572894e-04   1.18428504e-03]]

  [[ -6.51455522e-02  -1.54351532e-01  -1.38038069e-01 ...,
     -1.29404560e-01  -4.62243795e-01  -3.23985279e-01]
   [ -8.13870355e-02   4.18543853e-02  -1.01763301e-01 ...,
     -9.43124294e-02  -5.05662560e-01  -3.83694321e-01]
   [ -6.13601133e-02   1.35693997e-01  -1.15694344e-01 ...,
     -1.40158370e-01  -3.77666801e-01  -3.00509870e-01]
   [  4.74345696e-04   6.79618970e-04  -2.96418410e-04 ...,
     -4.36439761e-04   6.33388772e-05  -1.95312445e-04]]]


 [[[  3.10477257e-01  -1.87601492e-01   1.66595340e-01 ...,
     -9.88388434e-02   4.04058546e-01   3.92561197e-01]
   [  3.45739067e-01   3.10493708e-02   2.40750551e-01 ...,
     -6.93419054e-02   4.37116861e-01   4.13171440e-01]
   [  2.74769872e-01   1.48350164e-01   1.61559835e-01 ...,
     -1.14316158e-01   3.65494519e-01   3.39938998e-01]
   [  4.11637186e-04  -9.07719019e-04  -5.13275329e-04 ...,
     -5.72267636e-05   3.88983201e-04   4.46895836e-04]]

  [[  5.02023660e-02  -1.77571565e-01   1.51188180e-01 ...,
     -1.40649760e-02   2.59300828e-01   4.23764467e-01]
   [  4.06322069e-02   6.58102185e-02   2.20311403e-01 ...,
     -3.78979952e-03   2.69412428e-01   4.09505904e-01]
   [  3.86807770e-02   2.02298447e-01   1.56414255e-01 ...,
     -5.20089604e-02   2.57149011e-01   3.71682674e-01]
   [  1.38304755e-03   7.21911609e-04   5.95636084e-04 ...,
      2.67642288e-04   1.10025972e-03   8.00598820e-04]]

  [[ -4.03383434e-01  -1.74399972e-01  -1.09849639e-01 ...,
     -1.25688612e-01  -3.14026326e-01  -2.32839763e-01]
   [ -4.53501314e-01   4.62574959e-02  -6.67438358e-02 ...,
     -1.03502415e-01  -3.45792353e-01  -2.92486250e-01]
   [ -3.67223352e-01   1.61688417e-01  -8.99365395e-02 ...,
     -1.45945460e-01  -2.71823555e-01  -2.39718184e-01]
   [  1.28411280e-03  -2.18071369e-03   3.56495693e-05 ...,
     -3.22441745e-04   8.24989926e-04  -8.35361949e-04]]]


 [[[ -5.08716851e-02  -1.66002661e-01   1.56279504e-02 ...,
     -1.49742723e-01   3.06801915e-01   8.82701725e-02]
   [ -5.86349145e-02   3.16787697e-02   7.59588331e-02 ...,
     -1.05017252e-01   3.39550197e-01   9.86374393e-02]
   [ -5.74681684e-02   1.29344285e-01   1.29030216e-02 ...,
     -1.41449392e-01   2.41099641e-01   4.55602147e-02]
   [ -6.34787197e-04   9.74029012e-04  -6.87221691e-05 ...,
     -4.20855562e-04   4.98259964e-04  -3.19052342e-04]]

  [[ -2.85227507e-01  -1.66666731e-01  -7.96697661e-03 ...,
     -1.09780088e-01   2.79203743e-01   9.46525261e-02]
   [ -3.30669671e-01   5.47101051e-02   4.86797579e-02 ...,
     -8.29023942e-02   2.95466095e-01   7.44469985e-02]
   [ -2.62249678e-01   1.71572417e-01   5.44555223e-05 ...,
     -1.22728683e-01   2.44687453e-01   5.32913655e-02]
   [ -1.77454809e-03  -8.49406992e-04  -1.82305416e-03 ...,
      6.55753247e-04   4.59204981e-04   1.62428978e-03]]

  [[ -4.18516338e-01  -1.57048807e-01  -1.49133086e-01 ...,
     -1.56839803e-01  -1.42874300e-01  -2.69694626e-01]
   [ -4.85030204e-01   4.23195846e-02  -1.12076312e-01 ...,
     -1.18306056e-01  -1.67058021e-01  -3.22241962e-01]
   [ -3.50096762e-01   1.38710454e-01  -1.25339806e-01 ...,
     -1.53092295e-01  -1.39917329e-01  -2.65075237e-01]
   [  2.10441509e-03  -2.25277967e-03   1.73211924e-03 ...,
      6.57919270e-04  -1.50147208e-03  -9.13318290e-05]]]]
